{"learner":{"attributes":{},"feature_names":["vehicle_id","destination","platform_name","current_location_hex","destination_location_hex","distance_travel_miles","sin_time","cos_time"],"feature_types":["int","int","int","int","int","float","float","float"],"gradient_booster":{"model":{"gbtree_model_param":{"num_parallel_tree":"1","num_trees":"10"},"iteration_indptr":[0,1,2,3,4,5,6,7,8,9,10],"tree_info":[0,0,0,0,0,0,0,0,0,0],"trees":[{"base_weights":[2.5958049E-3,-2.0433664E0,1.2533563E0,-8.152185E-1,-4.0800023E0,4.444257E-1,2.1032727E0,-3.8471775E0,1.763575E-2,-5.0453286E0,-1.7300447E0,1.3424157E0,2.9583039E-2,3.3758676E0,6.757867E-1,-2.8435469E0,-6.026424E0,-4.3259315E-2,7.9919875E-4,-4.1630507E0,-7.8088303E0,-1.9619783E0,5.565527E-1,1.5561273E0,-2.8762648E0,7.993414E-4,8.071213E-1,3.1596715E0,5.351041E0,1.3101921E0,-2.1903324E0,-4.3694353E0,-1.61146E0,-1.5078351E-1,-2.0981993E-1,-5.836106E0,-2.7437282E0,-2.0583469E-1,-2.5286898E-1,-1.5259715E0,-3.175862E0,-5.0683543E-2,1.8093011E0,2.7059492E-1,2.103719E0,-1.2937522E-1,-1.3643099E0,4.0008317E-4,3.238393E-2,2.3114772E0,3.586295E0,5.873739E0,7.217095E-2,7.955142E-4,1.9338654E0,-2.4062501E-1,-5.494705E0,5.751133E-2,-4.6386065E0,-1.3093177E0,-6.9575965E-2,-5.126182E0,-2.1212615E-1,-2.91795E0,-1.1343659E0,-3.1970031E0,-9.988601E-1,-1.2684765E0,-1.1447913E-1,8.746751E-3,6.930461E-2,6.072423E-1,-1.0236745E0,1.9869915E0,9.8830014E-2,-2.5192022E-2,-5.9036076E-2,1.2846451E0,2.6908815E0,3.2885063E0,4.9893975E0,2.6135346E-1,5.5112214E0,1.5158871E0,1.0121525E-1,-7.1771294E-1,1.1781933E0,-1.8043192E-1,-1.0337971E-1,9.623657E-3,-2.6307174E-3,-3.931165E0,-5.7902946E0,-2.4427347E-1,-1.8237748E0,-2.6199093E0,-5.2849483E0,-1.2635162E-1,-2.6299822E0,-2.3646133E-1,-1.4179034E0,-2.1350622E0,-3.9927602E0,1.3048344E0,-1.2754712E0,-4.7168724E-2,-2.5544753E-2,3.906541E0,4.435778E-2,-7.878833E-1,-4.8082978E-2,2.1588683E0,1.1703681E0,-1.4986267E-2,2.1280544E0,4.33568E0,2.3663566E0,2.7807539E0,3.6282732E0,2.4856332E-1,4.4109354E0,8.174113E-2,1.7241268E-1,6.682064E-2,1.1937808E0,-5.00449E-1,-4.467987E-2,4.130496E-2,4.5750164E-3,-1.3004386E-1,-7.5131126E-2,-2.1221923E-2,-1.8173309E-1,4.995649E-3,-2.2799063E-2,-8.947472E-2,-4.620913E-2,-8.75971E-2,-1.1361449E-2,-1.7652856E-1,-1.2659343E-1,7.580523E-4,-9.16843E-2,6.001247E-4,-1.51486E-2,-5.475371E-2,-3.1676378E-2,-1.0302895E-1,-4.1501753E-2,-2.299175E-2,-1.2615044E-1,6.001247E-4,5.4134212E-2,-4.4250175E-2,6.2323585E-2,5.501512E-2,1.2981679E-1,3.0314168E-3,-5.9715426E-3,-2.9028997E-2,-9.507942E-3,8.1123196E-2,5.7969403E-2,2.7305355E-2,4.7456425E-2,3.6904242E-2,-3.777863E-2,8.367803E-2,4.2053793E-2,1.5253907E-1,3.963714E-2,-4.7907755E-3,8.069583E-2,9.4703026E-2,4.8589434E-2,1.1937323E-1,9.824428E-2,8.056419E-2,1.5291813E-1,4.6620425E-2,9.54544E-3,-2.9297942E-2,-4.0906493E-4],"categories":[],"categories_nodes":[],"categories_segments":[],"categories_sizes":[],"default_left":[0,0,0,0,0,0,0,0,0,0,0,0,0,0,0,0,0,0,0,0,0,0,0,0,0,0,0,0,0,0,0,0,0,0,0,0,0,0,0,0,0,0,0,0,0,0,0,0,0,0,0,0,0,0,0,0,0,0,0,0,0,0,0,0,0,0,0,0,0,0,0,0,0,0,0,0,0,0,0,0,0,0,0,0,0,0,0,0,0,0,0,0,0,0,0,0,0,0,0,0,0,0,0,0,0,0,0,0,0,0,0,0,0,0,0,0,0,0,0,0,0,0,0,0,0,0,0,0,0,0,0,0,0,0,0,0,0,0,0,0,0,0,0,0,0,0,0,0,0,0,0,0,0,0,0,0,0,0,0,0,0,0,0,0,0,0,0,0,0,0,0,0,0,0,0,0,0,0,0,0,0,0,0],"id":0,"left_children":[1,3,5,7,9,11,13,15,17,19,21,23,25,27,29,31,33,-1,-1,35,37,39,41,43,45,-1,47,49,51,53,55,57,59,-1,-1,61,63,-1,-1,65,67,-1,69,71,73,-1,75,-1,-1,77,79,81,-1,-1,83,85,87,89,91,93,-1,95,-1,97,99,101,103,105,-1,-1,-1,107,109,111,-1,-1,-1,113,115,117,119,-1,121,123,-1,125,127,-1,-1,-1,-1,129,131,133,135,137,139,-1,141,143,145,147,149,151,153,-1,-1,155,157,159,-1,161,163,165,167,169,171,173,175,-1,177,-1,-1,-1,179,181,-1,-1,-1,-1,-1,-1,-1,-1,-1,-1,-1,-1,-1,-1,-1,-1,-1,-1,-1,-1,-1,-1,-1,-1,-1,-1,-1,-1,-1,-1,-1,-1,-1,-1,-1,-1,-1,-1,-1,-1,-1,-1,-1,-1,-1,-1,-1,-1,-1,-1,-1,-1,-1,-1,-1,-1,-1],"loss_changes":[1.1425976E4,4.23386E3,1.9041924E3,2.6717083E3,1.43629E3,5.293176E2,2.4519604E3,4.8153564E2,1.0480217E1,1.0671084E3,1.0026526E2,4.092857E2,2.4275503E0,2.8798828E2,1.1629333E3,2.9000317E2,3.23396E1,0E0,0E0,8.0085156E2,1.6254883E0,8.5128174E1,5.3241875E1,3.0071997E2,4.0348953E1,0E0,8.124087E-1,2.2547168E2,9.322693E1,4.1875677E2,7.4601483E2,8.367908E1,1.5330307E1,0E0,0E0,9.29541E1,4.9402588E1,0E0,0E0,1.0867078E2,4.5346863E1,0E0,8.0106735E0,5.682852E1,3.3928345E1,0E0,2.11055E0,0E0,0E0,8.186206E1,1.6242285E2,1.0145996E1,0E0,0E0,2.0124304E2,5.0936287E1,2.0333252E1,2.1476023E-1,3.1011108E1,3.462136E1,0E0,2.6342773E1,0E0,4.9714233E1,4.7565117E0,1.68266E1,6.411258E1,1.558876E-1,0E0,0E0,0E0,1.911105E2,2.3237438E0,3.60719E1,0E0,0E0,0E0,6.689528E1,7.461096E1,5.132715E1,9.912756E1,0E0,1.0775269E1,5.773938E1,0E0,8.448086E0,3.371149E0,0E0,0E0,0E0,0E0,1.2114929E1,1.9181946E1,4.6865587E0,1.0059998E1,3.720131E0,3.1501953E1,0E0,1.4575085E2,4.139708E-1,2.8477097E-1,9.863129E0,5.396805E0,6.741638E0,5.6619354E1,0E0,0E0,3.9281464E0,1.2122009E0,1.3832636E0,0E0,2.377649E1,3.916069E0,3.93844E1,1.3471359E1,4.5836823E1,1.0039258E2,5.4052124E1,1.2351807E1,0E0,5.7313477E1,0E0,0E0,0E0,5.617932E1,1.0181299E1,0E0,0E0,0E0,0E0,0E0,0E0,0E0,0E0,0E0,0E0,0E0,0E0,0E0,0E0,0E0,0E0,0E0,0E0,0E0,0E0,0E0,0E0,0E0,0E0,0E0,0E0,0E0,0E0,0E0,0E0,0E0,0E0,0E0,0E0,0E0,0E0,0E0,0E0,0E0,0E0,0E0,0E0,0E0,0E0,0E0,0E0,0E0,0E0,0E0,0E0,0E0,0E0,0E0,0E0,0E0,0E0,0E0],"parents":[2147483647,0,0,1,1,2,2,3,3,4,4,5,5,6,6,7,7,8,8,9,9,10,10,11,11,12,12,13,13,14,14,15,15,16,16,19,19,20,20,21,21,22,22,23,23,24,24,26,26,27,27,28,28,29,29,30,30,31,31,32,32,35,35,36,36,39,39,40,40,42,42,43,43,44,44,46,46,49,49,50,50,51,51,54,54,55,55,56,56,57,57,58,58,59,59,61,61,63,63,64,64,65,65,66,66,67,67,71,71,72,72,73,73,77,77,78,78,79,79,80,80,82,82,83,83,85,85,86,86,91,91,92,92,93,93,94,94,95,95,96,96,98,98,99,99,100,100,101,101,102,102,103,103,104,104,107,107,108,108,109,109,111,111,112,112,113,113,114,114,115,115,116,116,117,117,118,118,120,120,124,124,125,125],"right_children":[2,4,6,8,10,12,14,16,18,20,22,24,26,28,30,32,34,-1,-1,36,38,40,42,44,46,-1,48,50,52,54,56,58,60,-1,-1,62,64,-1,-1,66,68,-1,70,72,74,-1,76,-1,-1,78,80,82,-1,-1,84,86,88,90,92,94,-1,96,-1,98,100,102,104,106,-1,-1,-1,108,110,112,-1,-1,-1,114,116,118,120,-1,122,124,-1,126,128,-1,-1,-1,-1,130,132,134,136,138,140,-1,142,144,146,148,150,152,154,-1,-1,156,158,160,-1,162,164,166,168,170,172,174,176,-1,178,-1,-1,-1,180,182,-1,-1,-1,-1,-1,-1,-1,-1,-1,-1,-1,-1,-1,-1,-1,-1,-1,-1,-1,-1,-1,-1,-1,-1,-1,-1,-1,-1,-1,-1,-1,-1,-1,-1,-1,-1,-1,-1,-1,-1,-1,-1,-1,-1,-1,-1,-1,-1,-1,-1,-1,-1,-1,-1,-1,-1,-1],"split_conditions":[2E0,-4.363309E-3,4.363309E-3,-1.3089595E-2,6.39439E-1,-4.7269156E-3,1.2E1,1.2E1,-8.726535E-3,1.2E1,7.8531694E-1,1.7E1,-4.363309E-3,5E0,1.6E1,2.2E1,-1.8223552E-1,-4.3259315E-2,7.9919875E-4,2.2E1,1.4E1,1.4E1,4E0,5E0,-2.923717E-1,7.993414E-4,1E0,6E0,6.755902E-1,4E0,6.122173E-1,-3.007058E-1,1E1,-1.5078351E-1,-2.0981993E-1,4E0,4.617486E-1,-2.0583469E-1,-2.5286898E-1,6.85183E-1,6.755902E-1,-5.0683543E-2,8E0,4E0,1.5E1,-1.2937522E-1,1.4E1,4.0008317E-4,3.238393E-2,3.6243805E-1,8E0,8.7155744E-2,7.217095E-2,7.955142E-4,1.4E1,1.8E1,1.8E1,5E0,-8.7155744E-2,5E0,-6.9575965E-2,5E0,-2.1212615E-1,2E0,5.9482276E-1,2.875397E-1,5E0,8E0,-1.1447913E-1,8.746751E-3,6.930461E-2,1E1,-1.17537394E-1,1.4E1,9.8830014E-2,-2.5192022E-2,-5.9036076E-2,4E0,4.578739E-1,4.7331968E-1,1.2619896E-1,2.6135346E-1,1.693495E-1,1.4E1,1.0121525E-1,5.3729963E-1,5.4829323E-1,-1.8043192E-1,-1.0337971E-1,9.623657E-3,-2.6307174E-3,1.5E1,5E0,-2.1643962E-1,-3.007058E-1,3.8671097E-1,1.5E1,-1.2635162E-1,3E0,3E0,2E0,2.9E1,6.4278764E-1,7.2236395E-1,1E0,-4.7168724E-2,-2.5544753E-2,-3.007058E-1,-8.2808204E-2,-1.5643446E-1,-4.8082978E-2,1E1,-1.3052619E-1,2.0364176E-1,1.7364818E-1,5E0,4.9242356E-1,3.8268343E-1,6.3607824E-1,2.4856332E-1,2.7144045E-1,8.174113E-2,1.7241268E-1,6.682064E-2,6.723668E-1,3.9474386E-1,-4.467987E-2,4.130496E-2,4.5750164E-3,-1.3004386E-1,-7.5131126E-2,-2.1221923E-2,-1.8173309E-1,4.995649E-3,-2.2799063E-2,-8.947472E-2,-4.620913E-2,-8.75971E-2,-1.1361449E-2,-1.7652856E-1,-1.2659343E-1,7.580523E-4,-9.16843E-2,6.001247E-4,-1.51486E-2,-5.475371E-2,-3.1676378E-2,-1.0302895E-1,-4.1501753E-2,-2.299175E-2,-1.2615044E-1,6.001247E-4,5.4134212E-2,-4.4250175E-2,6.2323585E-2,5.501512E-2,1.2981679E-1,3.0314168E-3,-5.9715426E-3,-2.9028997E-2,-9.507942E-3,8.1123196E-2,5.7969403E-2,2.7305355E-2,4.7456425E-2,3.6904242E-2,-3.777863E-2,8.367803E-2,4.2053793E-2,1.5253907E-1,3.963714E-2,-4.7907755E-3,8.069583E-2,9.4703026E-2,4.8589434E-2,1.1937323E-1,9.824428E-2,8.056419E-2,1.5291813E-1,4.6620425E-2,9.54544E-3,-2.9297942E-2,-4.0906493E-4],"split_indices":[2,6,6,6,6,6,4,4,6,4,6,4,6,2,1,3,6,0,0,3,4,4,4,1,6,0,1,1,6,1,6,6,4,0,0,4,6,0,0,6,6,0,1,1,4,0,1,0,0,6,4,6,0,0,1,1,1,1,6,1,0,1,0,1,6,5,1,1,0,0,0,4,6,4,0,0,0,4,6,6,6,0,6,4,0,6,6,0,0,0,0,1,1,6,6,6,1,0,1,1,1,3,6,6,2,0,0,6,6,6,0,1,6,6,6,1,6,6,6,0,6,0,0,0,6,6,0,0,0,0,0,0,0,0,0,0,0,0,0,0,0,0,0,0,0,0,0,0,0,0,0,0,0,0,0,0,0,0,0,0,0,0,0,0,0,0,0,0,0,0,0,0,0,0,0,0,0,0,0,0,0,0,0],"split_type":[0,0,0,0,0,0,0,0,0,0,0,0,0,0,0,0,0,0,0,0,0,0,0,0,0,0,0,0,0,0,0,0,0,0,0,0,0,0,0,0,0,0,0,0,0,0,0,0,0,0,0,0,0,0,0,0,0,0,0,0,0,0,0,0,0,0,0,0,0,0,0,0,0,0,0,0,0,0,0,0,0,0,0,0,0,0,0,0,0,0,0,0,0,0,0,0,0,0,0,0,0,0,0,0,0,0,0,0,0,0,0,0,0,0,0,0,0,0,0,0,0,0,0,0,0,0,0,0,0,0,0,0,0,0,0,0,0,0,0,0,0,0,0,0,0,0,0,0,0,0,0,0,0,0,0,0,0,0,0,0,0,0,0,0,0,0,0,0,0,0,0,0,0,0,0,0,0,0,0,0,0,0,0],"sum_hessian":[4.463E3,1.693E3,2.77E3,1.057E3,6.36E2,1.42E3,1.35E3,2.27E2,8.3E2,4.5E2,1.86E2,4.48E2,9.72E2,7.13E2,6.37E2,1.57E2,7E1,4E0,8.26E2,3.43E2,1.07E2,1.69E2,1.7E1,4.27E2,2.1E1,9.69E2,3E0,6.45E2,6.8E1,5.22E2,1.15E2,6.9E1,8.8E1,3.5E1,3.5E1,1.56E2,1.87E2,4.1E1,6.6E1,1.26E2,4.3E1,6E0,1.1E1,1.28E2,2.99E2,1E1,1.1E1,1E0,2E0,2.18E2,4.27E2,5.7E1,1.1E1,1.71E2,3.51E2,7.3E1,4.2E1,4E0,6.5E1,6.3E1,2.5E1,1E2,5.6E1,1.68E2,1.9E1,2.9E1,9.7E1,1.1E1,3.2E1,3E0,8E0,1.02E2,2.6E1,2.74E2,2.5E1,7E0,4E0,6E1,1.58E2,3.55E2,7.2E1,4E0,5.3E1,2.72E2,7.9E1,5.5E1,1.8E1,3.3E1,9E0,1E0,3E0,4.3E1,2.2E1,2.1E1,4.2E1,7E0,9.3E1,2.9E1,1.39E2,5E0,1.4E1,1.4E1,1.5E1,1E1,8.7E1,5E0,6E0,1.4E1,8.8E1,2E1,6E0,2.25E2,4.9E1,2.4E1,3.6E1,2.4E1,1.34E2,1.46E2,2.09E2,9E0,6.3E1,4E0,4.9E1,8.5E1,1.87E2,4.4E1,1.1E1,1.5E1,3E0,3.3E1,1E1,1E0,2.1E1,1.2E1,9E0,7E0,3.5E1,6E0,1E0,6E1,3.3E1,1.8E1,1.21E2,3E0,2E0,5E0,9E0,4E0,1E1,1E0,1.4E1,3E0,7E0,8.3E1,4E0,3E0,1.1E1,7.2E1,1.6E1,1.4E1,6E0,7E1,1.55E2,3.1E1,1.8E1,1.2E1,1.2E1,1.8E1,1.8E1,1.9E1,5E0,1.4E1,1.2E2,1.12E2,3.4E1,1.12E2,9.7E1,1.8E1,4.5E1,1.34E2,5.3E1,2.2E1,2.2E1],"tree_param":{"num_deleted":"0","num_feature":"8","num_nodes":"183","size_leaf_vector":"1"}},{"base_weights":[-1.1542197E-2,-1.9957929E0,1.2076142E0,-8.0428857E-1,-3.952677E0,4.2839757E-1,2.0227175E0,-3.7391932E0,1.7039336E-2,-4.8943257E0,-1.6202198E0,1.2983321E0,2.8716702E-2,3.263427E0,6.580703E-1,-2.8002467E0,-5.786849E0,-4.2209327E-2,7.7497994E-4,-4.05003E0,-7.56821E0,-2.5064692E0,-6.3719016E-1,1.5068687E0,-2.7987084E0,7.7511295E-4,7.908293E-1,2.8711126E0,5.3772235E0,1.25606E0,-2.1488116E0,-3.8488061E0,-1.7171161E0,-1.4524929E-1,-6.653315E0,-5.3708816E0,-2.6441972E0,-1.1312305E-1,-8.286736E0,-2.038685E0,-3.2902331E0,7.778899E-1,-3.6405618E0,2.9561785E-1,2.0319722E0,-1.2580682E-1,-1.3299358E0,3.9401418E-4,3.1728916E-2,3.2765305E0,1.0912855E0,3.3890128E0,7.4515443E0,7.7159336E-4,1.850793E0,-2.1634553E-1,-5.3345966E0,-5.633754E-1,-4.4120207E0,-1.4048173E0,-2.2580812E0,-2.233423E-1,-1.5215166E-1,-2.4702594E0,-5.8445563E0,-3.8027425E0,-2.3204615E0,-2.1635681E-1,-2.704348E-1,-2.6622775E0,-1.372211E0,-3.6339087E0,8.547717E-3,-6.891222E-1,1.6607207E0,-1.23289295E-1,5.864695E-4,6.6861105E-1,-9.699799E-1,2.1734028E0,1.2718055E0,-2.452324E-2,-5.7603158E-2,1.650241E0,3.6956155E0,3.0358295E0,6.9088936E-1,3.8936107E0,7.621182E-2,1.5191391E-1,2.358883E-1,1.4658931E0,9.780256E-2,-6.8161756E-1,1.0274427E0,-1.7511863E-1,-1.0055683E-1,1.5248515E-2,-3.3160944E-2,-2.5708557E-3,-4.6074314E0,2.6544968E-2,-1.7715971E0,-1.6862991E0,-8.220337E-2,-9.224955E-2,-1.196739E0,-9.703484E-2,-6.2847595E0,-5.336935E-2,-1.2365419E-1,7.4249186E-4,-2.7451863E0,-3.1058833E-2,-8.4845155E-2,1.5444946E-3,-1.5162196E0,-1.3015722E-1,-6.623148E-2,-1.3125584E-1,-1.2360505E0,7.225903E-1,2.0509048E0,3.794453E0,3.5576675E-2,-8.038036E-1,-4.553164E-2,2.0150342E0,3.08414E0,1.3410332E-2,1.4229376E0,2.2589695E0,7.6247466E-1,5.734009E0,3.3417249E0,5.030577E-2,1.0344249E-1,-3.831689E-1,1.0799555E0,5.9747577E-2,1.2815106E-1,-4.517697E-2,1.5572692E0,-4.5108315E-1,-4.343725E-2,1.2351831E0,4.768973E-3,-1.1759832E-1,-1.761632E-1,5.765339E-4,1.1189149E-3,-3.5629835E-2,-7.1036585E-2,-6.5636225E-2,-3.736152E-2,-1.7833613E-2,-4.5653585E-2,-2.0404655E-1,-1.3662638E-1,-8.7414734E-2,-3.0811427E-2,-4.9340263E-2,-3.0654151E-2,-1.0231981E-2,1.2027632E-3,-4.5976147E-2,-2.4880448E-2,2.3360986E-2,9.344147E-3,3.2369025E-2,6.753825E-2,1.2848924E-1,5.7347473E-2,2.32525E-3,-4.4386922E-3,-2.8676767E-2,-9.260682E-3,5.1673938E-2,7.499938E-2,1.1871209E-1,1.8852482E-2,3.6193278E-2,6.118593E-2,4.404502E-2,8.155741E-2,-2.6708689E-2,3.7112463E-2,1.410526E-1,2.3064654E-1,1.1102898E-1,7.3707715E-2,-3.371947E-2,6.764179E-2,4.1245993E-2,2.2573568E-2,6.414097E-2,3.868222E-2,-2.1215953E-2,9.464172E-3,2.9368281E-2,5.445448E-2],"categories":[],"categories_nodes":[],"categories_segments":[],"categories_sizes":[],"default_left":[0,0,0,0,0,0,0,0,0,0,0,0,0,0,0,0,0,0,0,0,0,0,0,0,0,0,0,0,0,0,0,0,0,0,0,0,0,0,0,0,0,0,0,0,0,0,0,0,0,0,0,0,0,0,0,0,0,0,0,0,0,0,0,0,0,0,0,0,0,0,0,0,0,0,0,0,0,0,0,0,0,0,0,0,0,0,0,0,0,0,0,0,0,0,0,0,0,0,0,0,0,0,0,0,0,0,0,0,0,0,0,0,0,0,0,0,0,0,0,0,0,0,0,0,0,0,0,0,0,0,0,0,0,0,0,0,0,0,0,0,0,0,0,0,0,0,0,0,0,0,0,0,0,0,0,0,0,0,0,0,0,0,0,0,0,0,0,0,0,0,0,0,0,0,0,0,0,0,0,0,0,0,0,0,0,0,0,0,0,0,0,0,0,0,0,0,0,0,0,0,0],"id":1,"left_children":[1,3,5,7,9,11,13,15,17,19,21,23,25,27,29,31,33,-1,-1,35,37,39,41,43,45,-1,47,49,51,53,55,57,59,-1,61,63,65,-1,67,69,71,73,75,77,79,-1,81,-1,-1,83,85,87,89,-1,91,93,95,97,99,101,103,-1,-1,105,107,109,111,-1,-1,113,115,117,-1,119,121,-1,-1,123,125,127,129,-1,-1,131,133,135,137,139,-1,-1,-1,141,-1,143,145,-1,-1,-1,-1,-1,147,149,151,153,-1,-1,155,-1,157,-1,-1,-1,159,-1,-1,-1,161,-1,-1,163,165,167,169,171,173,175,-1,177,179,-1,181,183,185,187,189,-1,-1,191,193,-1,-1,-1,195,197,-1,199,-1,-1,-1,-1,-1,-1,-1,-1,-1,-1,-1,-1,-1,-1,-1,-1,-1,-1,-1,-1,-1,-1,-1,-1,-1,-1,-1,-1,-1,-1,-1,-1,-1,-1,-1,-1,-1,-1,-1,-1,-1,-1,-1,-1,-1,-1,-1,-1,-1,-1,-1,-1,-1,-1,-1],"loss_changes":[1.0837612E4,3.9722603E3,1.7616526E3,2.5576245E3,1.4087197E3,4.936913E2,2.2937378E3,4.2984766E2,9.975336E0,1.0055635E3,1.6131906E2,3.8612628E2,2.3321893E0,5.733452E2,1.0886797E3,1.7624316E2,3.0499023E1,0E0,0E0,6.3756885E2,2.698247E2,2.922229E1,3.8533298E2,2.7034894E2,3.8039017E1,0E0,7.7966905E-1,4.3008984E2,4.2840723E2,3.907851E2,7.006779E2,1.4739697E2,1.05121765E1,0E0,4.8448486E0,2.3287305E2,5.5686646E1,0E0,2.349121E0,2.294571E1,4.3989716E1,8.144209E1,4.4978546E1,6.201626E1,2.9166626E1,0E0,2.0250988E0,0E0,0E0,3.2718164E2,8.588301E1,1.5888733E1,2.9572754E0,0E0,1.854906E2,4.2366714E1,1.8858032E1,7.8883467E0,5.7955933E1,2.8396751E1,2.6568909E0,0E0,0E0,1.59702E1,1.592959E2,1.2907776E1,1.3651257E2,0E0,0E0,4.174423E0,6.8402443E0,2.1095642E1,0E0,7.16047E0,1.2793732E1,0E0,0E0,1.9972028E2,1.4395962E0,2.9699097E1,5.516144E0,0E0,0E0,5.3399323E1,2.607295E2,4.12735E0,4.011237E1,1.3923889E1,0E0,0E0,0E0,7.873132E1,0E0,8.518774E0,3.4216022E0,0E0,0E0,0E0,0E0,0E0,3.536792E1,2.3455918E-4,1.188266E1,5.909805E-1,0E0,0E0,9.9106216E-1,0E0,7.254199E1,0E0,0E0,0E0,2.435962E1,0E0,0E0,0E0,2.670288E-2,0E0,0E0,4.7101185E-1,1.5164566E-1,1.826191E-2,2.2785187E0,6.2566376E0,6.4602673E-1,1.4736977E0,0E0,2.64281E1,6.899106E1,0E0,3.1935196E0,1.6883636E1,3.3624023E1,7.815442E1,8.76521E1,0E0,0E0,5.1944744E1,5.5612335E0,0E0,0E0,0E0,4.053241E1,8.171919E0,0E0,6.552677E-1,0E0,0E0,0E0,0E0,0E0,0E0,0E0,0E0,0E0,0E0,0E0,0E0,0E0,0E0,0E0,0E0,0E0,0E0,0E0,0E0,0E0,0E0,0E0,0E0,0E0,0E0,0E0,0E0,0E0,0E0,0E0,0E0,0E0,0E0,0E0,0E0,0E0,0E0,0E0,0E0,0E0,0E0,0E0,0E0,0E0,0E0,0E0,0E0,0E0,0E0,0E0,0E0,0E0,0E0,0E0],"parents":[2147483647,0,0,1,1,2,2,3,3,4,4,5,5,6,6,7,7,8,8,9,9,10,10,11,11,12,12,13,13,14,14,15,15,16,16,19,19,20,20,21,21,22,22,23,23,24,24,26,26,27,27,28,28,29,29,30,30,31,31,32,32,34,34,35,35,36,36,38,38,39,39,40,40,41,41,42,42,43,43,44,44,46,46,49,49,50,50,51,51,52,52,54,54,55,55,56,56,57,57,58,58,59,59,60,60,63,63,64,64,65,65,66,66,69,69,70,70,71,71,73,73,74,74,77,77,78,78,79,79,80,80,83,83,84,84,85,85,86,86,87,87,91,91,93,93,94,94,100,100,101,101,102,102,103,103,106,106,108,108,112,112,116,116,119,119,120,120,121,121,122,122,123,123,124,124,125,125,127,127,128,128,130,130,131,131,132,132,133,133,134,134,137,137,138,138,142,142,143,143,145,145],"right_children":[2,4,6,8,10,12,14,16,18,20,22,24,26,28,30,32,34,-1,-1,36,38,40,42,44,46,-1,48,50,52,54,56,58,60,-1,62,64,66,-1,68,70,72,74,76,78,80,-1,82,-1,-1,84,86,88,90,-1,92,94,96,98,100,102,104,-1,-1,106,108,110,112,-1,-1,114,116,118,-1,120,122,-1,-1,124,126,128,130,-1,-1,132,134,136,138,140,-1,-1,-1,142,-1,144,146,-1,-1,-1,-1,-1,148,150,152,154,-1,-1,156,-1,158,-1,-1,-1,160,-1,-1,-1,162,-1,-1,164,166,168,170,172,174,176,-1,178,180,-1,182,184,186,188,190,-1,-1,192,194,-1,-1,-1,196,198,-1,200,-1,-1,-1,-1,-1,-1,-1,-1,-1,-1,-1,-1,-1,-1,-1,-1,-1,-1,-1,-1,-1,-1,-1,-1,-1,-1,-1,-1,-1,-1,-1,-1,-1,-1,-1,-1,-1,-1,-1,-1,-1,-1,-1,-1,-1,-1,-1,-1,-1,-1,-1,-1,-1,-1,-1],"split_conditions":[2E0,-4.363309E-3,4.363309E-3,-1.3089595E-2,6.39439E-1,-4.7269156E-3,1.2E1,1.2E1,-8.726535E-3,1.2E1,1.4E1,1.7E1,-4.363309E-3,1.6E1,1.6E1,6E0,-1.8223552E-1,-4.2209327E-2,7.7497994E-4,6E0,4E0,1.4E1,1.5E1,5E0,-2.923717E-1,7.7511295E-4,1E1,1.4E1,6E0,4E0,6.122173E-1,5E0,1E1,-1.4524929E-1,-5.2335955E-2,4E0,2E0,-1.1312305E-1,1.391731E-1,2E0,7.8531694E-1,7.1018535E-1,7.1325046E-1,4E0,1.6E1,-1.2580682E-1,1.4E1,3.9401418E-4,3.1728916E-2,3.6243805E-1,2.9654157E-1,4.2261827E-1,2E0,7.7159336E-4,1.4E1,1.8E1,1.8E1,-3.007058E-1,-3.1730467E-1,3E0,9E0,-2.233423E-1,-1.5215166E-1,5.6640625E-1,5E0,4E0,3E0,-2.1635681E-1,-2.704348E-1,5E0,3E0,1.3E1,8.547717E-3,1.4E1,7.431448E-1,-1.23289295E-1,5.864695E-4,1E1,-1.17537394E-1,1.5E1,-2.461533E-1,-2.452324E-2,-5.7603158E-2,1.90809E-1,5.112931E-1,7E0,5E0,2.0364176E-1,7.621182E-2,1.5191391E-1,2.358883E-1,1E0,9.780256E-2,1E1,1E1,-1.7511863E-1,-1.0055683E-1,1.5248515E-2,-3.3160944E-2,-2.5708557E-3,-8.7155744E-2,1.4E1,9E0,4E0,-8.220337E-2,-9.224955E-2,5E0,-9.703484E-2,1.5E1,-5.336935E-2,-1.2365419E-1,7.4249186E-4,4.617486E-1,-3.1058833E-2,-8.4845155E-2,1.5444946E-3,1.1E1,-1.3015722E-1,-6.623148E-2,6E0,8E0,1.3E1,2E0,1.4E1,-8.2808204E-2,-1.5643446E-1,-4.553164E-2,-8.2808204E-2,-2.1643962E-1,1.3410332E-2,1.3E1,3.9259817E-2,5E0,3E0,1.2E1,5.030577E-2,1.0344249E-1,5E0,4.2261827E-1,5.9747577E-2,1.2815106E-1,-4.517697E-2,1.4E1,8E0,-4.343725E-2,8E0,4.768973E-3,-1.1759832E-1,-1.761632E-1,5.765339E-4,1.1189149E-3,-3.5629835E-2,-7.1036585E-2,-6.5636225E-2,-3.736152E-2,-1.7833613E-2,-4.5653585E-2,-2.0404655E-1,-1.3662638E-1,-8.7414734E-2,-3.0811427E-2,-4.9340263E-2,-3.0654151E-2,-1.0231981E-2,1.2027632E-3,-4.5976147E-2,-2.4880448E-2,2.3360986E-2,9.344147E-3,3.2369025E-2,6.753825E-2,1.2848924E-1,5.7347473E-2,2.32525E-3,-4.4386922E-3,-2.8676767E-2,-9.260682E-3,5.1673938E-2,7.499938E-2,1.1871209E-1,1.8852482E-2,3.6193278E-2,6.118593E-2,4.404502E-2,8.155741E-2,-2.6708689E-2,3.7112463E-2,1.410526E-1,2.3064654E-1,1.1102898E-1,7.3707715E-2,-3.371947E-2,6.764179E-2,4.1245993E-2,2.2573568E-2,6.414097E-2,3.868222E-2,-2.1215953E-2,9.464172E-3,2.9368281E-2,5.445448E-2],"split_indices":[2,6,6,6,6,6,4,4,6,4,0,4,6,0,1,4,6,0,0,4,0,4,0,1,6,0,0,0,4,1,6,1,4,0,6,0,1,0,6,0,6,6,6,1,0,0,1,0,0,6,6,6,1,0,1,1,1,6,6,1,0,0,0,6,1,0,1,0,0,1,1,0,0,4,6,0,0,4,6,0,6,0,0,6,6,4,1,6,0,0,0,0,0,0,0,0,0,0,0,0,6,0,0,0,0,0,1,0,1,0,0,0,6,0,0,0,4,0,0,1,1,1,1,0,6,6,0,6,6,0,1,6,1,0,0,0,0,2,6,0,0,0,4,0,0,0,0,0,0,0,0,0,0,0,0,0,0,0,0,0,0,0,0,0,0,0,0,0,0,0,0,0,0,0,0,0,0,0,0,0,0,0,0,0,0,0,0,0,0,0,0,0,0,0,0,0,0,0,0,0,0],"split_type":[0,0,0,0,0,0,0,0,0,0,0,0,0,0,0,0,0,0,0,0,0,0,0,0,0,0,0,0,0,0,0,0,0,0,0,0,0,0,0,0,0,0,0,0,0,0,0,0,0,0,0,0,0,0,0,0,0,0,0,0,0,0,0,0,0,0,0,0,0,0,0,0,0,0,0,0,0,0,0,0,0,0,0,0,0,0,0,0,0,0,0,0,0,0,0,0,0,0,0,0,0,0,0,0,0,0,0,0,0,0,0,0,0,0,0,0,0,0,0,0,0,0,0,0,0,0,0,0,0,0,0,0,0,0,0,0,0,0,0,0,0,0,0,0,0,0,0,0,0,0,0,0,0,0,0,0,0,0,0,0,0,0,0,0,0,0,0,0,0,0,0,0,0,0,0,0,0,0,0,0,0,0,0,0,0,0,0,0,0,0,0,0,0,0,0,0,0,0,0,0,0],"sum_hessian":[4.478E3,1.704E3,2.774E3,1.06E3,6.44E2,1.419E3,1.355E3,2.31E2,8.29E2,4.58E2,1.86E2,4.46E2,9.73E2,7.09E2,6.46E2,1.6E2,7.1E1,4E0,8.25E2,3.5E2,1.08E2,9.7E1,8.9E1,4.25E2,2.1E1,9.7E2,3E0,6E2,1.09E2,5.33E2,1.13E2,8E1,8E1,3.6E1,3.5E1,1.79E2,1.71E2,1.8E1,9E1,6.3E1,3.4E1,6.1E1,2.8E1,1.29E2,2.96E2,1E1,1.1E1,1E0,2E0,4.88E2,1.12E2,5.7E1,5.2E1,1.74E2,3.59E2,7.1E1,4.2E1,1.2E1,6.8E1,5.3E1,2.7E1,2.2E1,1.3E1,2.6E1,1.53E2,3.5E1,1.36E2,3.6E1,5.4E1,3.1E1,3.2E1,3.1E1,3E0,2.3E1,3.8E1,2.5E1,3E0,1E2,2.9E1,2.48E2,4.8E1,7E0,4E0,1.01E2,3.87E2,1.8E1,9.4E1,3.4E1,2.3E1,8E0,4.4E1,2.82E2,7.7E1,5.2E1,1.9E1,3.3E1,9E0,4E0,8E0,3E0,6.5E1,1.1E1,4.2E1,1.4E1,1.3E1,1.7E1,9E0,2.3E1,1.3E2,5E0,3E1,2.1E1,1.15E2,3E0,2.8E1,3E0,2.9E1,2E1,1.1E1,1.2E1,1.1E1,1.2E1,2.6E1,1.6E1,8.4E1,2.4E1,5E0,2.14E2,3.4E1,8E0,4E1,5.9E1,4.2E1,5.5E1,3.32E2,5E0,1.3E1,2.5E1,6.9E1,6E0,2.8E1,8E0,2.74E2,4.1E1,1.1E1,1.5E1,4E0,4.3E1,2.2E1,8E0,3E0,2.2E1,2E1,5E0,9E0,4E0,5E0,1.02E2,2.8E1,1.06E2,9E0,2.2E1,7E0,5E0,7E0,5E0,6E0,1E1,2E0,5E0,2.1E1,1.2E1,4E0,6.9E1,1.5E1,1.8E1,6E0,1.3E2,8.4E1,2.5E1,9E0,3.1E1,9E0,2.2E1,3.7E1,9E0,3.3E1,3.7E1,1.8E1,2.44E2,8.8E1,2E1,5E0,3.6E1,3.3E1,9E1,1.84E2,3.1E1,1E1,1.2E1,3E0],"tree_param":{"num_deleted":"0","num_feature":"8","num_nodes":"201","size_leaf_vector":"1"}},{"base_weights":[-2.7397654E-3,-1.9316983E0,1.173912E0,-4.5584776E-2,-3.771649E0,3.4261882E-2,1.7868724E0,-4.1932063E0,7.514919E-4,-4.35933E0,-1.636455E0,1.1769205E0,7.5161754E-4,2.208896E0,-1.2091814E0,-9.03153E-2,-1.613773E-1,-3.5052354E0,-6.7147894E0,-2.4630203E0,-6.9863015E-1,3.880356E-4,4.06979E-2,2.4446353E-2,2.4780672E0,-2.4067748E-1,-3.7359066E0,-5.078967E0,-2.2220583E0,-4.470689E0,-7.2327814E0,-1.9910384E0,-3.2691863E0,7.313745E-1,-3.5353518E0,1.0301603E-3,7.1414403E-4,2.3820126E0,5.3430533E0,-1.7440854E0,2.4623379E-1,-5.682936E-1,-5.230763E0,-3.2509654E0,-5.5253463E0,-1.8661435E0,-2.9329262E0,-1.44787E-1,-7.706303E-2,-7.9814386E0,-1.4520377E-1,-2.5775926E0,-1.34415E0,-3.6100874E0,8.353213E-3,-6.715429E-1,1.6216081E0,-1.1926521E-1,5.731235E-4,1.7241985E0,2.8344157E0,4.4302106E0,2.579554E-1,-3.9114216E-1,-3.2188573E0,-2.4709746E-1,8.4969133E-1,7.0244516E-4,-5.3231176E-2,-1.6996181E-1,-9.852627E-2,-3.5006127E0,-1.359986E0,-6.0065145E0,-3.7827759E0,7.622233E-4,-2.2742279E0,-2.245204E0,-3.2562175E0,-2.1357287E-1,-2.6227495E-1,-3.0352093E-2,-8.197738E-2,1.5093503E-3,-1.485198E0,-1.2677091E-1,-6.509016E-2,-1.2796813E-1,-1.2044536E0,7.099526E-1,1.9800026E0,3.0742881E0,1.4828321E0,2.6892757E0,5.2388077E0,3.597172E0,5.6914225E0,6.7374733E-4,-7.3745006E-1,-1.4950299E0,-1.2438873E-1,7.162624E-4,-7.5565374E-1,1.5871924E0,-4.5505768E-1,-2.0396939E-2,-1.07885584E-1,-1.0918561E-2,-4.4499315E-2,-1.988609E-1,-1.23821035E-1,-3.809397E-2,-1.177244E-1,-4.8125092E-2,-8.022425E-2,-5.0168306E-2,-8.761569E-2,-1.12756126E-1,-8.046098E-2,-4.8395675E-2,-2.984036E-2,-9.973283E-3,1.1708313E-3,-4.481372E-2,-2.4233418E-2,2.310134E-2,9.155148E-3,3.1550627E-2,6.536177E-2,7.825644E-2,1.14110634E-1,2.691659E-2,5.9102442E-2,6.1807405E-2,9.422399E-2,2.1455997E-1,1.1005094E-1,1.2340395E-1,5.4824594E-2,2.2365765E-1,1.2516847E-1,-2.8998815E-2,-1.0916394E-2,-2.0461895E-2,-5.6205016E-2,-1.3603622E-2,-4.3624297E-2,6.5963335E-2,3.229413E-2,-5.4836436E-4,-2.5809329E-2],"categories":[],"categories_nodes":[],"categories_segments":[],"categories_sizes":[],"default_left":[0,0,0,0,0,0,0,0,0,0,0,0,0,0,0,0,0,0,0,0,0,0,0,0,0,0,0,0,0,0,0,0,0,0,0,0,0,0,0,0,0,0,0,0,0,0,0,0,0,0,0,0,0,0,0,0,0,0,0,0,0,0,0,0,0,0,0,0,0,0,0,0,0,0,0,0,0,0,0,0,0,0,0,0,0,0,0,0,0,0,0,0,0,0,0,0,0,0,0,0,0,0,0,0,0,0,0,0,0,0,0,0,0,0,0,0,0,0,0,0,0,0,0,0,0,0,0,0,0,0,0,0,0,0,0,0,0,0,0,0,0,0,0,0,0,0,0,0,0,0,0],"id":2,"left_children":[1,3,5,7,9,11,13,15,-1,17,19,21,-1,23,25,-1,-1,27,29,31,33,-1,-1,35,37,39,41,43,45,47,49,51,53,55,57,-1,-1,59,61,63,65,67,69,71,73,75,77,-1,-1,79,-1,81,83,85,-1,87,89,-1,-1,91,93,95,-1,97,99,101,103,-1,-1,-1,-1,105,107,109,111,-1,113,115,117,-1,-1,-1,-1,-1,119,-1,-1,121,123,125,127,129,131,133,135,137,139,-1,141,143,-1,-1,145,147,149,-1,-1,-1,-1,-1,-1,-1,-1,-1,-1,-1,-1,-1,-1,-1,-1,-1,-1,-1,-1,-1,-1,-1,-1,-1,-1,-1,-1,-1,-1,-1,-1,-1,-1,-1,-1,-1,-1,-1,-1,-1,-1,-1,-1,-1,-1],"loss_changes":[1.0166041E4,5.889021E3,1.9433342E3,2.4492506E2,1.070751E3,1.0531239E1,2.289979E3,3.3383636E0,0E0,1.3303955E3,1.4323663E2,1.5146294E0,0E0,9.3249316E2,5.472609E2,0E0,0E0,9.903247E2,1.7457617E2,3.1160034E1,3.6361642E2,0E0,0E0,7.1197003E-4,3.7584766E2,1.1974974E2,2.9060522E2,1.6318506E2,6.4104004E1,8.832764E0,2.2376025E2,2.1198639E1,4.328537E1,7.602443E1,4.225763E1,0E0,0E0,4.0222607E2,9.210388E1,7.8552284E1,3.7125313E1,1.4773659E1,1.2725952E1,1.6954834E1,1.256875E2,1.4361127E2,1.2699219E1,0E0,0E0,6.618164E0,0E0,3.7702026E0,6.5619125E0,1.7671234E1,0E0,6.798114E0,1.0683388E1,0E0,0E0,1.7792651E2,2.6823047E2,1.8400574E1,0E0,3.1655874E0,2.2725128E1,9.516994E0,5.4608463E1,0E0,0E0,0E0,0E0,3.8638306E0,2.1920204E-1,1.177793E2,5.220886E0,0E0,3.4750305E1,7.3913574E0,6.550476E0,0E0,0E0,0E0,0E0,0E0,8.539581E-2,0E0,0E0,4.4736186E-1,1.4743805E-1,2.2335052E-2,2.020378E0,1.8853516E1,1.304436E2,2.0136914E2,1.0728113E2,1.3693878E1,3.7928467E0,0E0,6.4559984E-1,1.0974388E0,0E0,0E0,4.386325E0,8.73233E0,3.6150455E0,0E0,0E0,0E0,0E0,0E0,0E0,0E0,0E0,0E0,0E0,0E0,0E0,0E0,0E0,0E0,0E0,0E0,0E0,0E0,0E0,0E0,0E0,0E0,0E0,0E0,0E0,0E0,0E0,0E0,0E0,0E0,0E0,0E0,0E0,0E0,0E0,0E0,0E0,0E0,0E0,0E0,0E0,0E0,0E0,0E0,0E0],"parents":[2147483647,0,0,1,1,2,2,3,3,4,4,5,5,6,6,7,7,9,9,10,10,11,11,13,13,14,14,17,17,18,18,19,19,20,20,23,23,24,24,25,25,26,26,27,27,28,28,29,29,30,30,31,31,32,32,33,33,34,34,37,37,38,38,39,39,40,40,41,41,42,42,43,43,44,44,45,45,46,46,49,49,51,51,52,52,53,53,55,55,56,56,59,59,60,60,61,61,63,63,64,64,65,65,66,66,71,71,72,72,73,73,74,74,76,76,77,77,78,78,84,84,87,87,88,88,89,89,90,90,91,91,92,92,93,93,94,94,95,95,96,96,98,98,99,99,102,102,103,103,104,104],"right_children":[2,4,6,8,10,12,14,16,-1,18,20,22,-1,24,26,-1,-1,28,30,32,34,-1,-1,36,38,40,42,44,46,48,50,52,54,56,58,-1,-1,60,62,64,66,68,70,72,74,76,78,-1,-1,80,-1,82,84,86,-1,88,90,-1,-1,92,94,96,-1,98,100,102,104,-1,-1,-1,-1,106,108,110,112,-1,114,116,118,-1,-1,-1,-1,-1,120,-1,-1,122,124,126,128,130,132,134,136,138,140,-1,142,144,-1,-1,146,148,150,-1,-1,-1,-1,-1,-1,-1,-1,-1,-1,-1,-1,-1,-1,-1,-1,-1,-1,-1,-1,-1,-1,-1,-1,-1,-1,-1,-1,-1,-1,-1,-1,-1,-1,-1,-1,-1,-1,-1,-1,-1,-1,-1,-1,-1,-1],"split_conditions":[2E0,-9.999619E-1,-9.999619E-1,-9.9998885E-1,-7.688418E-1,-9.9998885E-1,6.8E1,1.6E1,7.514919E-4,1.2E1,1.4E1,1E1,7.5161754E-4,1E0,-7.7988446E-1,-9.03153E-2,-1.613773E-1,2.2E1,4E0,1.4E1,1.5E1,3.880356E-4,4.06979E-2,-9.988484E-1,6E0,-9.469301E-1,1.4E1,4E0,1E1,-8.746197E-1,1.6E1,2E0,-6.2251467E-1,-7.0710677E-1,-7.0090926E-1,1.0301603E-3,7.1414403E-4,8E0,1.6E1,3E0,1.8E1,4E0,1.8E1,-8.241262E-1,1.6E1,3E0,9E0,-1.44787E-1,-7.706303E-2,-9.914449E-1,-1.4520377E-1,5E0,3E0,1.3E1,8.353213E-3,1.4E1,-6.691306E-1,-1.1926521E-1,5.731235E-4,1E0,1.7E1,-9.2050487E-1,2.579554E-1,4E0,-9.5881975E-1,4E0,2E1,7.0244516E-4,-5.3231176E-2,-1.6996181E-1,-9.852627E-2,5E0,5E0,1.5E1,5E0,7.622233E-4,9E0,-9.5371693E-1,2E0,-2.1357287E-1,-2.6227495E-1,-3.0352093E-2,-8.197738E-2,1.5093503E-3,1.1E1,-1.2677091E-1,-6.509016E-2,6E0,8E0,1.3E1,2E0,-8.41039E-1,-9.3819135E-1,-9.4551855E-1,4E0,-9.702957E-1,-8.870108E-1,6.7374733E-4,1.7E1,1.4E1,-1.2438873E-1,7.162624E-4,1E1,1.4E1,-8.870108E-1,-2.0396939E-2,-1.07885584E-1,-1.0918561E-2,-4.4499315E-2,-1.988609E-1,-1.23821035E-1,-3.809397E-2,-1.177244E-1,-4.8125092E-2,-8.022425E-2,-5.0168306E-2,-8.761569E-2,-1.12756126E-1,-8.046098E-2,-4.8395675E-2,-2.984036E-2,-9.973283E-3,1.1708313E-3,-4.481372E-2,-2.4233418E-2,2.310134E-2,9.155148E-3,3.1550627E-2,6.536177E-2,7.825644E-2,1.14110634E-1,2.691659E-2,5.9102442E-2,6.1807405E-2,9.422399E-2,2.1455997E-1,1.1005094E-1,1.2340395E-1,5.4824594E-2,2.2365765E-1,1.2516847E-1,-2.8998815E-2,-1.0916394E-2,-2.0461895E-2,-5.6205016E-2,-1.3603622E-2,-4.3624297E-2,6.5963335E-2,3.229413E-2,-5.4836436E-4,-2.5809329E-2],"split_indices":[2,7,7,7,7,7,3,0,0,4,0,0,0,1,7,0,0,3,0,4,0,0,0,7,2,7,1,0,4,7,0,0,7,7,7,0,0,1,0,0,4,1,1,7,0,1,0,0,0,7,0,1,1,0,0,4,7,0,0,4,0,7,0,1,7,1,4,0,0,0,0,1,1,1,1,0,0,7,1,0,0,0,0,0,4,0,0,1,1,1,1,7,7,7,2,7,7,0,1,1,0,0,0,1,7,0,0,0,0,0,0,0,0,0,0,0,0,0,0,0,0,0,0,0,0,0,0,0,0,0,0,0,0,0,0,0,0,0,0,0,0,0,0,0,0,0,0,0,0,0,0],"split_type":[0,0,0,0,0,0,0,0,0,0,0,0,0,0,0,0,0,0,0,0,0,0,0,0,0,0,0,0,0,0,0,0,0,0,0,0,0,0,0,0,0,0,0,0,0,0,0,0,0,0,0,0,0,0,0,0,0,0,0,0,0,0,0,0,0,0,0,0,0,0,0,0,0,0,0,0,0,0,0,0,0,0,0,0,0,0,0,0,0,0,0,0,0,0,0,0,0,0,0,0,0,0,0,0,0,0,0,0,0,0,0,0,0,0,0,0,0,0,0,0,0,0,0,0,0,0,0,0,0,0,0,0,0,0,0,0,0,0,0,0,0,0,0,0,0,0,0,0,0,0,0],"sum_hessian":[4.477E3,1.696E3,2.781E3,8.38E2,8.58E2,9.73E2,1.808E3,1.3E1,8.25E2,6.72E2,1.86E2,7E0,9.66E2,1.585E3,2.23E2,8E0,5E0,4.95E2,1.77E2,9.8E1,8.8E1,1E0,6E0,1.74E2,1.411E3,1.62E2,6.1E1,2.21E2,2.74E2,3.5E1,1.42E2,6.4E1,3.4E1,5.9E1,2.9E1,1.2E1,1.62E2,1.367E3,4.4E1,3.9E1,1.23E2,2E1,4.1E1,4.5E1,1.76E2,1.85E2,8.9E1,2.9E1,6E0,1.07E2,3.5E1,3.2E1,3.2E1,3.1E1,3E0,2.3E1,3.6E1,2.6E1,3E0,5.59E2,8.08E2,3.6E1,8E0,2.1E1,1.8E1,6.8E1,5.5E1,1.4E1,6E0,3.3E1,8E0,3.9E1,6E0,1.36E2,4E1,3.3E1,1.52E2,3.1E1,5.8E1,4.9E1,5.8E1,3E0,2.9E1,3E0,2.9E1,2.1E1,1E1,1.2E1,1.1E1,1.1E1,2.5E1,8.3E1,4.76E2,7.64E2,4.4E1,2.4E1,1.2E1,1E1,1.1E1,7E0,1.1E1,4.5E1,2.3E1,3.5E1,2E1,1E0,3.8E1,1E0,5E0,1.04E2,3.2E1,2E0,3.8E1,5.5E1,9.7E1,1.8E1,1.3E1,3E1,2.8E1,2.2E1,7E0,5E0,7E0,5E0,6E0,9E0,2E0,5E0,2E1,5.1E1,3.2E1,2.1E2,2.66E2,3E2,4.64E2,1.9E1,2.5E1,1.8E1,6E0,4E0,8E0,6E0,5E0,3E0,4E0,1.7E1,6E0,1.5E1,2E1,1E1,1E1],"tree_param":{"num_deleted":"0","num_feature":"8","num_nodes":"151","size_leaf_vector":"1"}},{"base_weights":[-1.2518854E-2,-1.8736197E0,1.126509E0,-4.028834E-2,-3.6619272E0,3.326522E-2,1.7207508E0,-4.113249E0,7.2871713E-4,-4.244039E0,-1.5128876E0,1.1463486E0,7.288336E-4,2.1358762E0,-1.1909546E0,-8.482004E-2,-1.5729713E-1,-3.4246564E0,-6.5034204E0,-2.3534446E0,-5.892207E-1,3.8214744E-4,3.9639525E-2,2.392885E0,2.3728024E-2,-2.4037634E-1,-3.6163945E0,-4.933919E0,-2.163595E0,-4.301888E0,-7.0312605E0,-1.9182402E0,-3.0906339E0,7.443797E-1,-3.3740623E0,2.273121E0,4.444659E0,1.0013082E-3,6.923708E-4,-1.6971775E0,2.3533441E-1,-4.656537E0,6.825557E-4,-3.1684616E0,-5.369911E0,-1.807114E0,-2.8643997E0,-1.4719544E-1,-9.2607796E-2,-7.7589912E0,-1.4177752E-1,-2.5095088E0,-1.2670265E0,-3.4244444E0,8.1631355E-3,-6.847314E-1,1.5681022E0,-1.1426671E-1,5.6008133E-4,1.6883178E0,2.653802E0,2.2081964E-1,3.1554768E0,-3.8105863E-1,-3.1317794E0,-2.6081222E-1,8.534941E-1,-4.032534E-2,-1.4471686E-1,-3.4056392E0,-1.326641E0,-4.711025E0,-6.5981836E0,-2.2102058E0,2.4382984E-2,-2.2514892E0,-3.1637385E0,-2.0779039E-1,-2.543531E-1,-7.992343E-2,-2.9661432E-2,-1.5308841E0,-8.659288E-1,-1.2349337E-1,-6.257922E-2,-1.3873732E-1,-1.1736646E0,2.0752626E-2,1.9357013E0,1.5624194E0,4.0396643E0,3.1269104E0,1.6994175E0,1.0625457E-1,3.883367E-2,-7.184021E-1,6.5516355E-4,-1.4592543E0,-1.2092928E-1,-7.9374075E-1,6.9500506E-4,1.5417665E0,-4.2807096E-1,-5.9881497E-2,-1.0906367E-1,-4.3374225E-2,-1.0752927E-2,-1.5337051E-1,-9.7131364E-2,-2.1566764E-1,-1.20298855E-1,-4.6754222E-2,-7.766898E-2,6.725162E-4,1.07611E-3,-4.8726313E-2,-8.856199E-2,-7.810398E-2,-1.1007543E-1,-2.4440814E-2,-5.0988577E-2,1.4750033E-3,-3.3331927E-2,-9.7211255E-3,1.1164874E-3,-4.3680683E-2,-2.3603216E-2,6.368935E-2,3.0752925E-2,2.3700114E-2,5.476426E-2,1.0451028E-1,1.9572584E-1,8.117453E-2,1.18771486E-1,-4.3593477E-2,5.3542476E-2,-2.824468E-2,-1.064039E-2,-5.484081E-2,-1.9996287E-2,-1.5585551E-2,-4.2489816E-2,3.1360988E-2,6.40871E-2,1.6319377E-3,-2.5097465E-2],"categories":[],"categories_nodes":[],"categories_segments":[],"categories_sizes":[],"default_left":[0,0,0,0,0,0,0,0,0,0,0,0,0,0,0,0,0,0,0,0,0,0,0,0,0,0,0,0,0,0,0,0,0,0,0,0,0,0,0,0,0,0,0,0,0,0,0,0,0,0,0,0,0,0,0,0,0,0,0,0,0,0,0,0,0,0,0,0,0,0,0,0,0,0,0,0,0,0,0,0,0,0,0,0,0,0,0,0,0,0,0,0,0,0,0,0,0,0,0,0,0,0,0,0,0,0,0,0,0,0,0,0,0,0,0,0,0,0,0,0,0,0,0,0,0,0,0,0,0,0,0,0,0,0,0,0,0,0,0,0,0,0,0,0,0,0,0],"id":3,"left_children":[1,3,5,7,9,11,13,15,-1,17,19,21,-1,23,25,-1,-1,27,29,31,33,-1,-1,35,37,39,41,43,45,47,49,51,53,55,57,59,61,-1,-1,63,65,67,-1,69,71,73,75,-1,-1,77,-1,79,81,83,-1,85,87,-1,-1,89,91,-1,93,95,97,99,101,-1,-1,103,105,107,109,111,113,115,117,-1,-1,-1,-1,119,121,-1,-1,123,125,-1,127,129,131,133,135,-1,-1,137,-1,139,-1,141,-1,143,145,-1,-1,-1,-1,-1,-1,-1,-1,-1,-1,-1,-1,-1,-1,-1,-1,-1,-1,-1,-1,-1,-1,-1,-1,-1,-1,-1,-1,-1,-1,-1,-1,-1,-1,-1,-1,-1,-1,-1,-1,-1,-1,-1,-1],"loss_changes":[9.441782E3,5.5438984E3,1.7949287E3,2.1906305E2,1.0644199E3,9.993144E0,2.1661567E3,3.85495E0,0E0,1.2236504E3,1.4146991E2,1.4362478E0,0E0,8.505747E2,5.155784E2,0E0,0E0,9.3334814E2,1.7659863E2,2.4870972E1,3.3304565E2,0E0,0E0,3.331797E2,6.86273E-4,1.12667984E2,2.3855762E2,1.5617432E2,6.2775757E1,1.0603821E1,2.0744287E2,2.1078049E1,3.9052338E1,7.2882385E1,3.8651E1,2.8982764E2,2.546571E2,0E0,0E0,7.433088E1,3.7946434E1,1.2135254E1,0E0,1.6013367E1,1.1377832E2,1.3515576E2,9.388977E0,0E0,0E0,3.4038086E0,0E0,3.540268E0,2.0610085E0,1.8871765E1,0E0,5.977125E0,1.1350716E1,0E0,0E0,1.4880847E2,3.5545654E2,0E0,3.0626648E1,3.003823E0,2.1323196E1,1.0451136E1,4.917361E1,0E0,0E0,4.006378E0,1.9408512E-1,4.6141113E1,5.242041E1,3.1163025E1,4.9380586E-5,9.53035E0,6.534729E0,0E0,0E0,0E0,0E0,6.0053635E-1,3.2454567E0,0E0,0E0,3.944673E-1,1.432724E-1,0E0,1.9426041E0,9.316968E1,1.5084259E1,1.790669E2,5.7246887E1,0E0,0E0,6.1131144E-1,0E0,1.0382614E0,0E0,3.3583593E0,0E0,8.252884E0,3.8910673E0,0E0,0E0,0E0,0E0,0E0,0E0,0E0,0E0,0E0,0E0,0E0,0E0,0E0,0E0,0E0,0E0,0E0,0E0,0E0,0E0,0E0,0E0,0E0,0E0,0E0,0E0,0E0,0E0,0E0,0E0,0E0,0E0,0E0,0E0,0E0,0E0,0E0,0E0,0E0,0E0,0E0,0E0,0E0,0E0],"parents":[2147483647,0,0,1,1,2,2,3,3,4,4,5,5,6,6,7,7,9,9,10,10,11,11,13,13,14,14,17,17,18,18,19,19,20,20,23,23,24,24,25,25,26,26,27,27,28,28,29,29,30,30,31,31,32,32,33,33,34,34,35,35,36,36,39,39,40,40,41,41,43,43,44,44,45,45,46,46,49,49,51,51,52,52,53,53,55,55,56,56,59,59,60,60,62,62,63,63,64,64,65,65,66,66,69,69,70,70,71,71,72,72,73,73,74,74,75,75,76,76,81,81,82,82,85,85,86,86,88,88,89,89,90,90,91,91,92,92,95,95,97,97,99,99,101,101,102,102],"right_children":[2,4,6,8,10,12,14,16,-1,18,20,22,-1,24,26,-1,-1,28,30,32,34,-1,-1,36,38,40,42,44,46,48,50,52,54,56,58,60,62,-1,-1,64,66,68,-1,70,72,74,76,-1,-1,78,-1,80,82,84,-1,86,88,-1,-1,90,92,-1,94,96,98,100,102,-1,-1,104,106,108,110,112,114,116,118,-1,-1,-1,-1,120,122,-1,-1,124,126,-1,128,130,132,134,136,-1,-1,138,-1,140,-1,142,-1,144,146,-1,-1,-1,-1,-1,-1,-1,-1,-1,-1,-1,-1,-1,-1,-1,-1,-1,-1,-1,-1,-1,-1,-1,-1,-1,-1,-1,-1,-1,-1,-1,-1,-1,-1,-1,-1,-1,-1,-1,-1,-1,-1,-1,-1],"split_conditions":[2E0,-9.999619E-1,-9.999619E-1,-9.9998885E-1,-7.688418E-1,-9.9998885E-1,6.8E1,1.6E1,7.2871713E-4,1.2E1,1.4E1,1E1,7.288336E-4,7E0,-7.7988446E-1,-8.482004E-2,-1.5729713E-1,2.2E1,4E0,1.4E1,1.5E1,3.8214744E-4,3.9639525E-2,1.7E1,-9.988484E-1,-9.469301E-1,6E0,4E0,1E1,-8.808907E-1,1.6E1,2E0,-6.2251467E-1,-7.0710677E-1,-7.0090926E-1,-9.4551855E-1,-9.8836154E-1,1.0013082E-3,6.923708E-4,3E0,1.8E1,3.6621725E-3,6.825557E-4,-8.241262E-1,4E0,9E0,9E0,-1.4719544E-1,-9.2607796E-2,-9.914449E-1,-1.4177752E-1,-6.293204E-1,9E0,1.3E1,8.1631355E-3,1.4E1,-6.691306E-1,-1.1426671E-1,5.6008133E-4,6E0,1.2E1,2.2081964E-1,-9.469301E-1,6E0,-9.5881975E-1,6E0,2E1,-4.032534E-2,-1.4471686E-1,-9.9496853E-1,2E0,9E0,1.6E1,9E0,1.7E1,-9.5371693E-1,1.1E1,-2.0779039E-1,-2.543531E-1,-7.992343E-2,-2.9661432E-2,1E0,1E1,-1.2349337E-1,-6.257922E-2,1.9E1,1.5E1,2.0752626E-2,1.1E1,1.2E1,1.6E1,6E0,1E0,1.0625457E-1,3.883367E-2,1.8E1,6.5516355E-4,1.9E1,-1.2092928E-1,1E1,6.9500506E-4,1.9E1,-8.870108E-1,-5.9881497E-2,-1.0906367E-1,-4.3374225E-2,-1.0752927E-2,-1.5337051E-1,-9.7131364E-2,-2.1566764E-1,-1.20298855E-1,-4.6754222E-2,-7.766898E-2,6.725162E-4,1.07611E-3,-4.8726313E-2,-8.856199E-2,-7.810398E-2,-1.1007543E-1,-2.4440814E-2,-5.0988577E-2,1.4750033E-3,-3.3331927E-2,-9.7211255E-3,1.1164874E-3,-4.3680683E-2,-2.3603216E-2,6.368935E-2,3.0752925E-2,2.3700114E-2,5.476426E-2,1.0451028E-1,1.9572584E-1,8.117453E-2,1.18771486E-1,-4.3593477E-2,5.3542476E-2,-2.824468E-2,-1.064039E-2,-5.484081E-2,-1.9996287E-2,-1.5585551E-2,-4.2489816E-2,3.1360988E-2,6.40871E-2,1.6319377E-3,-2.5097465E-2],"split_indices":[2,7,7,7,7,7,3,0,0,4,0,0,0,2,7,0,0,3,0,4,0,0,0,0,7,7,2,0,4,7,0,0,7,7,7,7,7,0,0,0,4,5,0,7,4,4,0,0,0,7,0,7,4,0,0,4,7,0,0,2,4,0,7,2,7,2,4,0,0,7,4,3,0,0,0,7,4,0,0,0,0,4,4,0,0,3,4,0,4,3,0,4,0,0,0,4,0,4,0,0,0,4,7,0,0,0,0,0,0,0,0,0,0,0,0,0,0,0,0,0,0,0,0,0,0,0,0,0,0,0,0,0,0,0,0,0,0,0,0,0,0,0,0,0,0,0,0],"split_type":[0,0,0,0,0,0,0,0,0,0,0,0,0,0,0,0,0,0,0,0,0,0,0,0,0,0,0,0,0,0,0,0,0,0,0,0,0,0,0,0,0,0,0,0,0,0,0,0,0,0,0,0,0,0,0,0,0,0,0,0,0,0,0,0,0,0,0,0,0,0,0,0,0,0,0,0,0,0,0,0,0,0,0,0,0,0,0,0,0,0,0,0,0,0,0,0,0,0,0,0,0,0,0,0,0,0,0,0,0,0,0,0,0,0,0,0,0,0,0,0,0,0,0,0,0,0,0,0,0,0,0,0,0,0,0,0,0,0,0,0,0,0,0,0,0,0,0],"sum_hessian":[4.452E3,1.69E3,2.762E3,8.35E2,8.55E2,9.73E2,1.789E3,1.2E1,8.23E2,6.72E2,1.83E2,7E0,9.66E2,1.566E3,2.23E2,7E0,5E0,4.95E2,1.77E2,9.5E1,8.8E1,1E0,6E0,1.396E3,1.7E2,1.61E2,6.2E1,2.24E2,2.71E2,3.6E1,1.41E2,6.2E1,3.3E1,6E1,2.8E1,1.321E3,7.5E1,1.2E1,1.58E2,3.9E1,1.22E2,4.8E1,1.4E1,4.6E1,1.78E2,1.82E2,8.9E1,2.3E1,1.3E1,1.06E2,3.5E1,3.1E1,3.1E1,3E1,3E0,2.2E1,3.8E1,2.5E1,3E0,5.23E2,7.98E2,2.2E1,5.3E1,2.1E1,1.8E1,6.8E1,5.4E1,2E0,4.6E1,4E1,6E0,1.19E2,5.9E1,1.49E2,3.3E1,3.2E1,5.7E1,4.8E1,5.8E1,2.8E1,3E0,1.7E1,1.4E1,1.9E1,1.1E1,1.1E1,1.1E1,1.2E1,2.6E1,4.98E2,2.5E1,5.32E2,2.66E2,4.4E1,9E0,1.1E1,1E1,7E0,1.1E1,2.3E1,4.5E1,3.5E1,1.9E1,6E0,3.4E1,5E0,1E0,9.5E1,2.4E1,4.8E1,1.1E1,5.3E1,9.6E1,3E1,3E0,1.8E1,1.4E1,2.8E1,2.9E1,4E0,1.3E1,3E0,1.1E1,5E0,6E0,5E0,6E0,2.1E1,5E0,1.19E2,3.79E2,2.2E1,3E0,3.41E2,1.91E2,5E0,2.61E2,6E0,5E0,4E0,3E0,1.7E1,6E0,2E1,1.5E1,9E0,1E1],"tree_param":{"num_deleted":"0","num_feature":"8","num_nodes":"147","size_leaf_vector":"1"}},{"base_weights":[-1.148403E-2,-1.808494E0,1.0902275E0,-4.339159E-2,-3.5344586E0,3.2270208E-2,1.6664183E0,7.066412E-4,-3.9793167E0,-4.0976434E0,-1.4917058E0,7.067456E-4,1.1165712E0,2.0565743E0,-1.1163496E0,-8.5592106E-2,-1.5332016E-1,-3.347236E0,-6.3289423E0,-2.3272123E0,-5.653576E-1,3.7634972E-4,3.8608674E-2,2.3112996E0,2.3007335E-2,-2.1856482E-1,-3.4676116E0,-4.8115053E0,-2.105078E0,-4.217406E0,-6.833232E0,-1.891522E0,-3.0574112E0,7.1146184E-1,-3.2756145E0,1.5812331E0,2.6129673E0,9.732641E-4,2.2147978E-2,-2.2983782E0,1.4472567E-1,-4.507494E0,6.632265E-4,-3.0897808E0,-5.222908E0,-1.4411168E0,-2.4419355E0,-1.4361857E-1,-9.040183E-2,-2.2935612E-1,-1.3843499E-1,-2.4528189E0,-1.2899153E0,-3.3769102E0,7.977381E-3,-6.377116E-1,1.5234798E0,-1.1093321E-1,5.473375E-4,6.608934E-1,1.848311E0,2.335043E0,4.148218E0,5.8282854E-4,7.038286E-4,-3.45737E0,5.287343E-4,4.4063678E-1,-3.2374045E-1,-3.950969E-2,-1.4020109E-1,-1.22655645E-1,-2.3589E0,-2.6816945E0,-5.6401935E0,-1.106706E0,-1.7732782E0,-9.666051E-1,-2.6090014E0,-7.811863E-2,-2.898649E-2,-3.0639032E-1,-1.343485E0,-1.18241295E-1,-6.156881E-2,-1.1436627E0,-1.2162506E-1,2.0171426E-2,5.70533E-2,2.156267E0,1.4610659E-1,1.7496713E0,3.4918897E0,2.6327667E0,9.5193136E-1,2.0755732E-1,3.2378364E0,-1.17566034E-1,-5.350972E-2,-2.5516278E-1,9.570438E-1,-6.0145986E-1,6.818113E-4,-7.8289166E-2,-3.926359E-2,7.848193E-3,-9.6557826E-2,-1.520035E-1,-2.0825598E-1,1.61338E-2,-3.709369E-2,-5.7652503E-2,1.0516207E-3,-7.771065E-3,-3.8009778E-2,-5.8836613E-2,-8.9923605E-2,9.6095836E-4,-1.4904743E-2,-4.6614863E-2,-2.9070422E-2,-4.2576294E-2,-2.2989398E-2,-9.475347E-3,1.110107E-3,1.0887171E-1,5.652218E-2,2.8760128E-2,-1.2076989E-2,5.4211114E-2,-2.465544E-2,1.1850777E-1,5.2088175E-2,7.318824E-2,1.3532531E-1,9.6278906E-2,2.178338E-2,8.6799175E-2,2.3891956E-1,-2.1618951E-2,6.7606213E-4,3.9938807E-2,-1.2256239E-2,-1.1933569E-2,-3.7291653E-2],"categories":[],"categories_nodes":[],"categories_segments":[],"categories_sizes":[],"default_left":[0,0,0,0,0,0,0,0,0,0,0,0,0,0,0,0,0,0,0,0,0,0,0,0,0,0,0,0,0,0,0,0,0,0,0,0,0,0,0,0,0,0,0,0,0,0,0,0,0,0,0,0,0,0,0,0,0,0,0,0,0,0,0,0,0,0,0,0,0,0,0,0,0,0,0,0,0,0,0,0,0,0,0,0,0,0,0,0,0,0,0,0,0,0,0,0,0,0,0,0,0,0,0,0,0,0,0,0,0,0,0,0,0,0,0,0,0,0,0,0,0,0,0,0,0,0,0,0,0,0,0,0,0,0,0,0,0,0,0,0,0,0,0,0,0],"id":4,"left_children":[1,3,5,7,9,11,13,-1,15,17,19,-1,21,23,25,-1,-1,27,29,31,33,-1,-1,35,37,39,41,43,45,47,49,51,53,55,57,59,61,-1,63,65,67,69,-1,71,73,75,77,-1,-1,-1,-1,79,81,83,-1,85,87,-1,-1,89,91,93,95,-1,-1,97,-1,99,101,-1,-1,-1,103,105,107,109,111,113,115,-1,-1,117,119,-1,-1,121,123,-1,-1,125,127,129,131,133,135,-1,137,-1,-1,139,141,143,-1,-1,-1,-1,-1,-1,-1,-1,-1,-1,-1,-1,-1,-1,-1,-1,-1,-1,-1,-1,-1,-1,-1,-1,-1,-1,-1,-1,-1,-1,-1,-1,-1,-1,-1,-1,-1,-1,-1,-1,-1,-1,-1],"loss_changes":[8.839739E3,5.1697646E3,1.6872783E3,2.205565E2,9.809717E2,9.4827795E0,1.947895E3,0E0,3.1602325E0,1.104001E3,1.4341666E2,0E0,1.3619146E0,8.1424414E2,4.6575696E2,0E0,0E0,9.0839307E2,1.5007178E2,2.5394653E1,3.1377625E2,0E0,0E0,3.0354004E2,6.615296E-4,1.2198043E2,2.214455E2,1.4748486E2,5.798755E1,8.260254E0,1.8648145E2,1.8447586E1,3.8017548E1,6.889583E1,3.6431854E1,9.980322E1,4.1145068E2,0E0,6.0357153E-5,6.4476234E1,1.927281E1,1.1083496E1,0E0,2.3198273E1,1.810503E2,8.589951E0,4.2090454E1,0E0,0E0,0E0,0E0,3.3842163E0,1.3270416E0,1.45289E1,0E0,6.1276503E0,1.070417E1,0E0,0E0,7.204602E1,4.544507E1,3.4256982E2,3.455774E2,0E0,0E0,4.482239E0,0E0,3.0786045E1,5.205618E0,0E0,0E0,0E0,3.50029E0,4.205757E1,8.747217E1,1.0144905E1,1.0622971E1,3.7457542E0,3.2755737E1,0E0,0E0,2.0305124E-1,8.325119E-1,0E0,0E0,1.3915539E-1,4.0361685E-1,0E0,0E0,3.396103E0,3.1356234E1,3.0176453E1,5.790436E0,2.6687744E2,7.5677704E1,0E0,1.767284E2,0E0,0E0,4.7112646E0,2.4495567E1,3.4356642E0,0E0,0E0,0E0,0E0,0E0,0E0,0E0,0E0,0E0,0E0,0E0,0E0,0E0,0E0,0E0,0E0,0E0,0E0,0E0,0E0,0E0,0E0,0E0,0E0,0E0,0E0,0E0,0E0,0E0,0E0,0E0,0E0,0E0,0E0,0E0,0E0,0E0,0E0,0E0,0E0,0E0,0E0,0E0],"parents":[2147483647,0,0,1,1,2,2,3,3,4,4,5,5,6,6,8,8,9,9,10,10,12,12,13,13,14,14,17,17,18,18,19,19,20,20,23,23,24,24,25,25,26,26,27,27,28,28,29,29,30,30,31,31,32,32,33,33,34,34,35,35,36,36,38,38,39,39,40,40,41,41,43,43,44,44,45,45,46,46,51,51,52,52,53,53,55,55,56,56,59,59,60,60,61,61,62,62,65,65,67,67,68,68,72,72,73,73,74,74,75,75,76,76,77,77,78,78,81,81,82,82,85,85,86,86,89,89,90,90,91,91,92,92,93,93,94,94,96,96,99,99,100,100,101,101],"right_children":[2,4,6,8,10,12,14,-1,16,18,20,-1,22,24,26,-1,-1,28,30,32,34,-1,-1,36,38,40,42,44,46,48,50,52,54,56,58,60,62,-1,64,66,68,70,-1,72,74,76,78,-1,-1,-1,-1,80,82,84,-1,86,88,-1,-1,90,92,94,96,-1,-1,98,-1,100,102,-1,-1,-1,104,106,108,110,112,114,116,-1,-1,118,120,-1,-1,122,124,-1,-1,126,128,130,132,134,136,-1,138,-1,-1,140,142,144,-1,-1,-1,-1,-1,-1,-1,-1,-1,-1,-1,-1,-1,-1,-1,-1,-1,-1,-1,-1,-1,-1,-1,-1,-1,-1,-1,-1,-1,-1,-1,-1,-1,-1,-1,-1,-1,-1,-1,-1,-1,-1,-1],"split_conditions":[2E0,-9.999619E-1,-9.999619E-1,-4.363309E-3,6.39439E-1,-4.363309E-3,6.8E1,7.066412E-4,1.6E1,5.2E1,1.4E1,7.067456E-4,1E1,7E0,6.3270533E-1,-8.5592106E-2,-1.5332016E-1,2.2E1,4E0,5.6E1,1.5E1,3.7634972E-4,3.8608674E-2,6.975647E-2,-9.988484E-1,-2.6723838E-1,6E0,4E0,-8.726535E-3,4.7331968E-1,1.6E1,2E0,7.8531694E-1,7.1018535E-1,7.1325046E-1,1.2E1,1.6E1,9.732641E-4,-8.2808204E-2,6E0,6.942509E-1,3.6621725E-3,6.632265E-4,-9.584575E-2,-1.4349262E-1,9E0,4E0,-1.4361857E-1,-9.040183E-2,-2.2935612E-1,-1.3843499E-1,7.77146E-1,4.324574E-3,1.3E1,7.977381E-3,6.755902E-1,7.431448E-1,-1.1093321E-1,5.473375E-4,4E0,6E0,1.4E1,4E0,5.8282854E-4,7.038286E-4,-2.923717E-1,5.287343E-4,8.2E1,6E0,-3.950969E-2,-1.4020109E-1,-1.22655645E-1,5.6640625E-1,9E0,1.3E1,-3.007058E-1,-6.5403126E-2,5.9482276E-1,1.9900331E-1,-7.811863E-2,-2.898649E-2,4E0,4E1,-1.18241295E-1,-6.156881E-2,6.658817E-1,1.9E1,2.0171426E-2,5.70533E-2,-2.8401536E-1,1.5348983E-1,9.6155375E-1,1.4E1,1.3E1,2.7144045E-1,2.0755732E-1,5E0,-1.17566034E-1,-5.350972E-2,6E0,9E1,1E1,6.818113E-4,-7.8289166E-2,-3.926359E-2,7.848193E-3,-9.6557826E-2,-1.520035E-1,-2.0825598E-1,1.61338E-2,-3.709369E-2,-5.7652503E-2,1.0516207E-3,-7.771065E-3,-3.8009778E-2,-5.8836613E-2,-8.9923605E-2,9.6095836E-4,-1.4904743E-2,-4.6614863E-2,-2.9070422E-2,-4.2576294E-2,-2.2989398E-2,-9.475347E-3,1.110107E-3,1.0887171E-1,5.652218E-2,2.8760128E-2,-1.2076989E-2,5.4211114E-2,-2.465544E-2,1.1850777E-1,5.2088175E-2,7.318824E-2,1.3532531E-1,9.6278906E-2,2.178338E-2,8.6799175E-2,2.3891956E-1,-2.1618951E-2,6.7606213E-4,3.9938807E-2,-1.2256239E-2,-1.1933569E-2,-3.7291653E-2],"split_indices":[2,7,7,6,6,6,3,0,0,3,0,0,0,2,6,0,0,3,0,3,0,0,0,6,7,6,2,0,6,6,0,0,6,6,6,3,0,0,6,2,5,5,0,6,6,0,0,0,0,0,0,6,5,0,0,6,6,0,0,3,2,0,2,0,0,6,0,3,2,0,0,0,6,0,3,6,6,6,5,0,0,0,3,0,0,6,3,0,0,6,5,5,0,0,6,0,2,0,0,2,3,0,0,0,0,0,0,0,0,0,0,0,0,0,0,0,0,0,0,0,0,0,0,0,0,0,0,0,0,0,0,0,0,0,0,0,0,0,0,0,0,0,0,0,0],"split_type":[0,0,0,0,0,0,0,0,0,0,0,0,0,0,0,0,0,0,0,0,0,0,0,0,0,0,0,0,0,0,0,0,0,0,0,0,0,0,0,0,0,0,0,0,0,0,0,0,0,0,0,0,0,0,0,0,0,0,0,0,0,0,0,0,0,0,0,0,0,0,0,0,0,0,0,0,0,0,0,0,0,0,0,0,0,0,0,0,0,0,0,0,0,0,0,0,0,0,0,0,0,0,0,0,0,0,0,0,0,0,0,0,0,0,0,0,0,0,0,0,0,0,0,0,0,0,0,0,0,0,0,0,0,0,0,0,0,0,0,0,0,0,0,0,0],"sum_hessian":[4.463E3,1.696E3,2.767E3,8.39E2,8.57E2,9.76E2,1.791E3,8.26E2,1.3E1,6.71E2,1.86E2,9.69E2,7E0,1.571E3,2.2E2,8E0,5E0,5.04E2,1.67E2,9.7E1,8.9E1,1E0,6E0,1.396E3,1.75E2,1.6E2,6E1,2.3E2,2.74E2,3.4E1,1.33E2,6.3E1,3.4E1,6.1E1,2.8E1,4.1E2,9.86E2,1.2E1,1.63E2,2.3E1,1.37E2,4.6E1,1.4E1,4.6E1,1.84E2,9.4E1,1.8E2,2.2E1,1.2E1,9.9E1,3.4E1,3.1E1,3.2E1,3.1E1,3E0,2.3E1,3.8E1,2.5E1,3E0,9.3E1,3.17E2,8.37E2,1.49E2,4.8E1,1.15E2,1.5E1,8E0,8.4E1,5.3E1,2E0,4.4E1,1.8E1,2.8E1,2.7E1,1.57E2,4.9E1,4.5E1,1.9E1,1.61E2,2.8E1,3E0,2E0,3E1,2.1E1,1E1,1.1E1,1.2E1,1.2E1,2.6E1,2.3E1,7E1,3.01E2,1.6E1,6.88E2,1.49E2,3.6E1,1.13E2,1.1E1,4E0,3.6E1,4.8E1,2.9E1,2.4E1,2.2E1,6E0,4E0,2.3E1,1.07E2,5E1,3E0,4.6E1,4.2E1,3E0,6E0,1.3E1,5.8E1,1.03E2,1E0,1E0,1.8E1,1.2E1,5E0,6E0,5E0,7E0,2E0,2.1E1,2.8E1,4.2E1,2.97E2,4E0,1.2E1,4E0,6.16E2,7.2E1,1.3E1,1.36E2,1.06E2,7E0,1.3E1,2.3E1,3.8E1,1E1,2.3E1,6E0],"tree_param":{"num_deleted":"0","num_feature":"8","num_nodes":"145","size_leaf_vector":"1"}},{"base_weights":[-4.493123E-4,-1.7636281E0,1.0773681E0,-3.131929E-2,-3.4573596E0,3.136768E-2,1.6450292E0,6.852247E-4,-3.7346241E0,-4.0076513E0,-1.459497E0,6.8532437E-4,1.0875676E0,2.0170376E0,-1.1352452E0,-6.413739E-2,-1.2987642E-1,-3.2624147E0,-6.1759486E0,-2.1984296E0,-6.29442E-1,3.706388E-4,3.7604626E-2,2.2559342E0,2.2330506E-2,-2.5736803E-1,-3.354911E0,-4.682282E0,-2.0355566E0,-4.097965E0,-6.6465726E0,-2.2786727E0,7.7958545E-3,6.848194E-1,-3.2369835E0,2.1633408E0,4.733058E0,9.4600796E-4,2.1461025E-2,-2.4407363E0,1.0847642E-1,-4.3828974E0,6.4444426E-4,-3.0135062E0,-5.069816E0,-1.3670206E0,-2.36223E0,-1.4022611E-1,-8.7870024E-2,-7.3358173E0,-1.3435489E-1,-1.8700968E0,-3.2910433E0,-6.214439E-1,1.5136167E0,-1.09201245E-1,5.3488126E-4,1.4671403E0,2.43322E0,3.9470112E0,2.389384E-1,5.6525785E-4,6.8239175E-4,-3.363166E0,4.9609883E-4,-2.5941393E-1,4.802973E-1,-2.2708103E-2,-1.3492253E-1,-1.1913014E-1,-2.286339E0,-2.5739233E0,-5.477459E0,-1.0465915E0,-1.7003697E0,-2.531388E0,-8.8239723E-1,-1.9527142E-1,-2.4117114E-1,-2.407591E0,-1.3256401E0,-1.169684E-1,-6.076364E-2,-1.1144278E0,-1.1857847E-1,1.9829776E-2,5.6199763E-2,6.805467E-1,1.7099468E0,2.193275E0,3.833787E0,3.200396E0,5.2116423E0,-1.1429634E-1,-5.2210934E-2,-7.04197E-1,6.706479E-4,1.0904142E0,-5.639109E-1,-1.8657103E-2,-7.255054E-2,7.6577035E-3,-9.270341E-2,-1.4798285E-1,-2.018311E-1,1.5766677E-2,-3.519539E-2,-5.5633508E-2,1.7525619E-3,-5.7349753E-2,-8.7199055E-2,-3.1937655E-2,1.8757519E-3,-7.6460004E-2,-2.8326904E-2,-3.5185825E-2,-6.540011E-2,-4.1499827E-2,-2.239154E-2,-9.235782E-3,1.0806373E-3,6.344491E-2,4.6098293E-3,5.3017847E-2,-2.4057008E-2,7.53374E-2,2.3217222E-2,2.018315E-1,8.42608E-2,1.1207456E-1,5.136964E-2,2.1206163E-1,1.1533827E-1,-1.5612714E-2,-3.7938368E-2,-1.8776778E-2,3.9036132E-2,-1.0955199E-2,-3.4770213E-2],"categories":[],"categories_nodes":[],"categories_segments":[],"categories_sizes":[],"default_left":[0,0,0,0,0,0,0,0,0,0,0,0,0,0,0,0,0,0,0,0,0,0,0,0,0,0,0,0,0,0,0,0,0,0,0,0,0,0,0,0,0,0,0,0,0,0,0,0,0,0,0,0,0,0,0,0,0,0,0,0,0,0,0,0,0,0,0,0,0,0,0,0,0,0,0,0,0,0,0,0,0,0,0,0,0,0,0,0,0,0,0,0,0,0,0,0,0,0,0,0,0,0,0,0,0,0,0,0,0,0,0,0,0,0,0,0,0,0,0,0,0,0,0,0,0,0,0,0,0,0,0,0,0,0,0,0,0,0,0],"id":5,"left_children":[1,3,5,7,9,11,13,-1,15,17,19,-1,21,23,25,-1,-1,27,29,31,33,-1,-1,35,37,39,41,43,45,47,49,51,-1,53,55,57,59,-1,61,63,65,67,-1,69,71,73,75,-1,-1,77,-1,79,81,83,85,-1,-1,87,89,91,-1,-1,-1,93,-1,95,97,-1,-1,-1,99,101,103,105,107,109,111,-1,-1,113,115,-1,-1,117,119,-1,-1,121,123,125,127,129,131,-1,-1,133,-1,135,137,-1,-1,-1,-1,-1,-1,-1,-1,-1,-1,-1,-1,-1,-1,-1,-1,-1,-1,-1,-1,-1,-1,-1,-1,-1,-1,-1,-1,-1,-1,-1,-1,-1,-1,-1,-1,-1,-1,-1,-1],"loss_changes":[8.460514E3,4.9555293E3,1.6405452E3,1.669698E2,9.3304395E2,8.997941E0,1.8546953E3,0E0,1.5710144E0,1.0608848E3,1.12700195E2,0E0,1.2914228E0,7.5286523E2,4.122385E2,0E0,0E0,8.6145703E2,1.3901416E2,1.9894196E1,3.0721896E2,0E0,0E0,3.1339502E2,6.389469E-4,1.22477066E2,2.0833136E2,1.3411133E2,5.573694E1,8.0199585E0,1.7697607E2,3.314026E1,0E0,6.5898285E1,3.5435547E1,2.5233594E2,9.2416504E1,0E0,4.1782856E-5,4.99178E1,1.8180786E1,7.3935547E0,0E0,2.156253E1,1.7514404E2,7.940567E0,4.282489E1,0E0,0E0,5.659668E0,0E0,1.7293365E1,1.1177612E1,5.817563E0,9.567802E0,0E0,0E0,7.1985535E1,3.209292E2,2.2976807E1,0E0,0E0,0E0,4.133713E0,0E0,8.404945E0,4.2662773E1,0E0,0E0,0E0,3.439621E0,3.8881195E1,7.962891E1,9.309322E0,1.0183678E1,2.9940552E1,3.280424E0,0E0,0E0,3.2859802E0,2.5951462E0,0E0,0E0,1.3508987E-1,3.8335145E-1,0E0,0E0,6.8281906E1,2.8802979E1,3.453601E2,4.0439746E2,1.5319702E1,8.52713E0,0E0,0E0,2.0493631E0,0E0,1.4882404E1,2.5379162E0,0E0,0E0,0E0,0E0,0E0,0E0,0E0,0E0,0E0,0E0,0E0,0E0,0E0,0E0,0E0,0E0,0E0,0E0,0E0,0E0,0E0,0E0,0E0,0E0,0E0,0E0,0E0,0E0,0E0,0E0,0E0,0E0,0E0,0E0,0E0,0E0,0E0,0E0,0E0,0E0],"parents":[2147483647,0,0,1,1,2,2,3,3,4,4,5,5,6,6,8,8,9,9,10,10,12,12,13,13,14,14,17,17,18,18,19,19,20,20,23,23,24,24,25,25,26,26,27,27,28,28,29,29,30,30,31,31,33,33,34,34,35,35,36,36,38,38,39,39,40,40,41,41,43,43,44,44,45,45,46,46,49,49,51,51,52,52,53,53,54,54,57,57,58,58,59,59,63,63,65,65,66,66,70,70,71,71,72,72,73,73,74,74,75,75,76,76,79,79,80,80,83,83,84,84,87,87,88,88,89,89,90,90,91,91,92,92,95,95,97,97,98,98],"right_children":[2,4,6,8,10,12,14,-1,16,18,20,-1,22,24,26,-1,-1,28,30,32,34,-1,-1,36,38,40,42,44,46,48,50,52,-1,54,56,58,60,-1,62,64,66,68,-1,70,72,74,76,-1,-1,78,-1,80,82,84,86,-1,-1,88,90,92,-1,-1,-1,94,-1,96,98,-1,-1,-1,100,102,104,106,108,110,112,-1,-1,114,116,-1,-1,118,120,-1,-1,122,124,126,128,130,132,-1,-1,134,-1,136,138,-1,-1,-1,-1,-1,-1,-1,-1,-1,-1,-1,-1,-1,-1,-1,-1,-1,-1,-1,-1,-1,-1,-1,-1,-1,-1,-1,-1,-1,-1,-1,-1,-1,-1,-1,-1,-1,-1,-1,-1],"split_conditions":[2E0,-9.999619E-1,-9.999619E-1,-4.363309E-3,6.39439E-1,-4.363309E-3,6.8E1,6.852247E-4,4E0,5.2E1,1.4E1,6.8532437E-4,1E1,7E0,6.3270533E-1,-6.413739E-2,-1.2987642E-1,2.2E1,4E0,7.9600203E-1,1.5E1,3.706388E-4,3.7604626E-2,6E0,-9.988484E-1,-2.6723838E-1,6E0,4E0,-8.726535E-3,4.7331968E-1,1.6E1,5.8E1,7.7958545E-3,7.1018535E-1,7.1325046E-1,3.9259817E-2,1.6E1,9.4600796E-4,-8.2808204E-2,6E0,8.3E1,3.6621725E-3,6.4444426E-4,-9.584575E-2,-1.4349262E-1,9E0,4.617486E-1,-1.4022611E-1,-8.7870024E-2,-9.914449E-1,-1.3435489E-1,2E0,1.3E1,6.755902E-1,7.431448E-1,-1.09201245E-1,5.3488126E-4,1.2E1,1.6E1,3.9474386E-1,2.389384E-1,5.6525785E-4,6.8239175E-4,-2.923717E-1,4.9609883E-4,6E0,9E1,-2.2708103E-2,-1.3492253E-1,-1.1913014E-1,9.769092E-3,9E0,1.3E1,-3.007058E-1,-9.3819135E-1,1.9900331E-1,4E0,-1.9527142E-1,-2.4117114E-1,7.77146E-1,7.7988446E-1,-1.169684E-1,-6.076364E-2,6.658817E-1,1.9E1,1.9829776E-2,5.6199763E-2,4E0,9.6155375E-1,1.4E1,4E0,-9.702957E-1,4.617486E-1,-1.1429634E-1,-5.2210934E-2,1E1,6.706479E-4,3.2143947E-1,1E1,-1.8657103E-2,-7.255054E-2,7.6577035E-3,-9.270341E-2,-1.4798285E-1,-2.018311E-1,1.5766677E-2,-3.519539E-2,-5.5633508E-2,1.7525619E-3,-5.7349753E-2,-8.7199055E-2,-3.1937655E-2,1.8757519E-3,-7.6460004E-2,-2.8326904E-2,-3.5185825E-2,-6.540011E-2,-4.1499827E-2,-2.239154E-2,-9.235782E-3,1.0806373E-3,6.344491E-2,4.6098293E-3,5.3017847E-2,-2.4057008E-2,7.53374E-2,2.3217222E-2,2.018315E-1,8.42608E-2,1.1207456E-1,5.136964E-2,2.1206163E-1,1.1533827E-1,-1.5612714E-2,-3.7938368E-2,-1.8776778E-2,3.9036132E-2,-1.0955199E-2,-3.4770213E-2],"split_indices":[2,7,7,6,6,6,3,0,0,3,0,0,0,2,6,0,0,3,0,6,0,0,0,2,7,6,2,0,6,6,0,3,0,6,6,6,0,0,6,2,3,5,0,6,6,0,6,0,0,7,0,0,0,6,6,0,0,3,0,6,0,0,0,6,0,2,3,0,0,0,5,0,3,6,7,5,0,0,0,6,6,0,0,6,3,0,0,3,5,0,2,7,6,0,0,0,0,6,0,0,0,0,0,0,0,0,0,0,0,0,0,0,0,0,0,0,0,0,0,0,0,0,0,0,0,0,0,0,0,0,0,0,0,0,0,0,0,0,0],"split_type":[0,0,0,0,0,0,0,0,0,0,0,0,0,0,0,0,0,0,0,0,0,0,0,0,0,0,0,0,0,0,0,0,0,0,0,0,0,0,0,0,0,0,0,0,0,0,0,0,0,0,0,0,0,0,0,0,0,0,0,0,0,0,0,0,0,0,0,0,0,0,0,0,0,0,0,0,0,0,0,0,0,0,0,0,0,0,0,0,0,0,0,0,0,0,0,0,0,0,0,0,0,0,0,0,0,0,0,0,0,0,0,0,0,0,0,0,0,0,0,0,0,0,0,0,0,0,0,0,0,0,0,0,0,0,0,0,0,0,0],"sum_hessian":[4.45E3,1.688E3,2.762E3,8.35E2,8.53E2,9.72E2,1.79E3,8.24E2,1.1E1,6.68E2,1.85E2,9.65E2,7E0,1.579E3,2.11E2,4E0,7E0,4.99E2,1.69E2,9.7E1,8.8E1,1E0,6E0,1.41E3,1.69E2,1.52E2,5.9E1,2.3E2,2.69E2,3.3E1,1.36E2,9.4E1,3E0,5.9E1,2.9E1,1.361E3,4.9E1,1.2E1,1.57E2,2.1E1,1.31E2,4.5E1,1.4E1,4.5E1,1.85E2,9E1,1.79E2,2.1E1,1.2E1,1.02E2,3.4E1,6.9E1,2.5E1,2.3E1,3.6E1,2.6E1,3E0,3.82E2,9.79E2,4.1E1,8E0,4.7E1,1.1E2,1.5E1,6E0,6.6E1,6.5E1,1E0,4.4E1,1.8E1,2.7E1,2.7E1,1.58E2,4.8E1,4.2E1,1.6E2,1.9E1,4.6E1,5.6E1,3.3E1,3.6E1,1.6E1,9E0,1.1E1,1.2E1,1.1E1,2.5E1,9.1E1,2.91E2,8.38E2,1.41E2,2.8E1,1.3E1,1.1E1,4E0,2.5E1,4.1E1,4.1E1,2.4E1,2E0,2.5E1,4E0,2.3E1,1.08E2,5E1,3E0,4.5E1,3.9E1,3E0,5.8E1,1.02E2,1.6E1,3E0,3E1,3E0,3.2E1,4E0,5E0,6E0,5E0,7E0,2.4E1,6.7E1,2.87E2,4E0,6.96E2,1.42E2,3.7E1,1.04E2,2E1,8E0,4E0,9E0,2E1,5E0,4E0,3.7E1,1.9E1,5E0],"tree_param":{"num_deleted":"0","num_feature":"8","num_nodes":"139","size_leaf_vector":"1"}},{"base_weights":[-4.6963575E-3,-1.6962305E0,1.0262079E0,-6.698371E-1,-3.409071E0,1.712739E0,3.35959E-1,-3.1538105E0,1.6307138E-2,-4.2300973E0,-1.443184E0,6.007423E-1,2.8629308E0,1.1573457E0,-2.5276154E-1,-2.3643548E0,-4.9501667E0,-3.47155E-2,6.6446245E-4,-3.500409E0,-6.5091987E0,-2.1735232E0,-5.885542E-1,1.4890873E0,9.12217E-2,2.501487E0,4.7433643E0,6.101145E-1,1.6624128E0,3.0159108E-2,-1.7821196E0,-3.6226208E0,-1.3314714E0,-1.6344972E-1,-1.066848E-1,-4.908002E0,-2.3085957E0,-9.698737E-2,-7.0993757E0,-1.7549671E0,-2.8805E0,7.199848E-1,-3.142396E0,3.7855828E0,1.2589667E0,3.659728E-2,4.775611E-2,2.891234E0,8.0870426E-1,2.950895E0,1.9968568E-1,1.5998542E0,6.6146546E-4,1.2430078E0,8.617046E-2,-1.29497E0,1.2580398E-1,-3.8973327E0,6.587841E-4,2.4627085E-1,-3.8538241E0,-1.0559872E0,-1.9351572E0,-2.3076184E0,-5.2983036E0,-2.0547535E0,-3.3450353E0,-1.8502025E-1,-2.3221764E-1,-2.2875922E0,-1.1863906E0,-3.1728005E0,7.6184613E-3,-5.897237E-1,1.4592901E0,-1.060108E-1,5.2271254E-4,1.2640235E-1,4.8000664E-2,6.409327E-1,1.5900509E0,6.636836E-4,6.034267E-1,1.355315E0,3.219687E0,2.6031582E0,4.7199002E-1,3.433611E0,6.335058E-2,1.1603214E0,8.7191604E-2,1.7633836E0,8.9715415E-1,-1.70476E-1,-2.7482886E0,-3.417925E-2,4.6800548E-1,-6.328997E-2,-4.231229E0,2.5891394E-3,1.3501313E-2,-3.2849715E0,-4.823972E0,-1.3227749E0,2.8032074E-3,-1.4822321E0,-7.0051976E-2,-7.832352E-2,-1.1469214E0,-4.394284E0,-6.0862308E0,-2.3855357E0,-1.2152156E0,-4.5797154E-2,-1.0924334E-1,-7.265492E-2,-2.7682325E-2,-1.4323859E0,-7.793043E-1,-1.12949364E-1,-5.7648033E-2,-1.2854427E-1,-3.152976E-2,1.9278279E-2,1.7714114E0,1.66564E0,-8.412473E-1,1.7719467E0,-7.817866E-2,4.42489E-3,3.408257E-2,7.001578E-2,4.3705156E-1,5.1117167E0,2.9012902E0,4.4948798E-2,8.9413375E-2,-4.5439532E-1,6.5596664E-1,5.0282083E-2,1.13591954E-1,1.5629984E0,8.374662E-1,2.225588E0,1.5655946E0,8.1950986E-1,1.2833248E0,-2.5239687E-2,5.3581706E-4,-3.3792682E0,-1.3794106E0,-3.219342E-1,2.1888636E-2,5.353624E-3,1.1792657E0,-3.8251236E-2,-4.332972E0,-7.611145E-2,-1.12089545E-1,-1.7708445E-2,-1.5140173E-1,-2.5155652E-2,-5.655816E-2,-5.964865E-2,-3.1667E-2,-3.7872538E-2,-9.711151E-3,-1.1585256E-1,-1.5906686E-1,-1.6154806E-1,-2.1886331E-1,-7.7670395E-2,-2.3556821E-2,3.5879884E-3,-7.241937E-2,-2.2054546E-2,-4.7431037E-2,2.6757952E-3,-3.0446965E-2,-9.002269E-3,1.0304779E-3,5.856495E-2,2.7111983E-2,1.0538633E-1,4.605437E-2,-3.0092651E-2,1.5769162E-3,3.0854871E-2,7.204107E-2,4.7411323E-3,-2.4896415E-2,-1.0831509E-2,4.016195E-2,1.2721974E-1,2.0826231E-1,9.767417E-2,6.1101057E-2,-3.3301204E-2,1.2527364E-3,3.948806E-2,2.1737062E-3,5.2275017E-2,2.1231676E-2,1.9848416E-2,3.557658E-2,4.330641E-2,8.468483E-2,5.9637938E-2,4.19587E-2,3.0768907E-2,2.1821976E-2,5.2563656E-2,2.4334896E-2,-1.1111758E-1,2.8186443E-4,-5.0943673E-2,-2.0022811E-2,6.490197E-4,-2.3229007E-2,5.448957E-4,6.7548675E-4,6.5965496E-4,-9.726301E-3,5.0593458E-2,-1.1194753E-2,-1.5306664E-1,-1.1351905E-1],"categories":[],"categories_nodes":[],"categories_segments":[],"categories_sizes":[],"default_left":[0,0,0,0,0,0,0,0,0,0,0,0,0,0,0,0,0,0,0,0,0,0,0,0,0,0,0,0,0,0,0,0,0,0,0,0,0,0,0,0,0,0,0,0,0,0,0,0,0,0,0,0,0,0,0,0,0,0,0,0,0,0,0,0,0,0,0,0,0,0,0,0,0,0,0,0,0,0,0,0,0,0,0,0,0,0,0,0,0,0,0,0,0,0,0,0,0,0,0,0,0,0,0,0,0,0,0,0,0,0,0,0,0,0,0,0,0,0,0,0,0,0,0,0,0,0,0,0,0,0,0,0,0,0,0,0,0,0,0,0,0,0,0,0,0,0,0,0,0,0,0,0,0,0,0,0,0,0,0,0,0,0,0,0,0,0,0,0,0,0,0,0,0,0,0,0,0,0,0,0,0,0,0,0,0,0,0,0,0,0,0,0,0,0,0,0,0,0,0,0,0,0,0,0,0,0,0,0,0,0,0,0,0,0,0,0,0,0,0,0,0,0,0,0,0,0,0],"id":6,"left_children":[1,3,5,7,9,11,13,15,17,19,21,23,25,27,29,31,33,-1,-1,35,37,39,41,43,45,47,49,51,53,55,57,59,61,-1,-1,63,65,-1,67,69,71,73,75,77,79,81,-1,83,85,87,-1,89,-1,91,-1,93,95,97,-1,99,101,103,105,107,109,111,113,-1,-1,115,117,119,-1,121,123,-1,-1,-1,-1,125,127,-1,129,131,133,135,137,139,-1,141,-1,143,145,147,149,151,153,-1,155,-1,-1,157,159,161,-1,163,-1,-1,165,167,169,171,173,-1,-1,-1,-1,175,177,-1,-1,179,-1,-1,181,183,185,187,189,-1,-1,-1,191,193,195,-1,-1,197,199,-1,-1,201,203,205,207,209,211,-1,-1,213,215,217,219,221,223,-1,225,-1,-1,-1,-1,-1,-1,-1,-1,-1,-1,-1,-1,-1,-1,-1,-1,-1,-1,-1,-1,-1,-1,-1,-1,-1,-1,-1,-1,-1,-1,-1,-1,-1,-1,-1,-1,-1,-1,-1,-1,-1,-1,-1,-1,-1,-1,-1,-1,-1,-1,-1,-1,-1,-1,-1,-1,-1,-1,-1,-1,-1,-1,-1,-1,-1,-1,-1,-1,-1,-1],"loss_changes":[7.7826196E3,2.9688184E3,1.3134868E3,1.8032686E3,1.0155845E3,1.7761035E3,6.695495E2,3.1305103E2,5.4128895E0,7.1892773E2,1.1606464E2,3.203262E2,4.523501E2,1.5873834E2,3.4923215E2,2.0441895E2,2.4302856E1,0E0,0E0,5.590493E2,1.8648682E2,2.4831696E1,2.9634103E2,1.3157965E2,3.6472427E1,3.7702197E2,3.3973438E2,1.6242023E2,1.4465656E2,8.660083E1,4.8083655E2,6.535309E1,1.29240265E1,0E0,0E0,1.4508813E2,4.206201E1,0E0,3.2851562E0,1.727333E1,3.375E1,5.7988777E1,3.33981E1,1.269873E1,4.7271515E1,3.6252465E0,0E0,2.312273E2,6.463113E1,1.6572144E1,0E0,5.490045E1,0E0,3.8552155E1,0E0,7.4706894E1,3.4889515E1,2.6251099E1,0E0,1.2193641E-1,2.1680664E1,1.973014E1,1.1482239E0,4.033699E0,6.87041E1,3.931201E1,1.0986694E1,0E0,0E0,2.6756134E0,2.28854E0,1.6026306E1,0E0,4.4269514E0,8.646149E0,0E0,0E0,0E0,0E0,1.2898047E2,4.656543E1,0E0,2.4531903E0,7.2453735E1,2.1649707E2,2.1913528E0,1.6148355E1,1.3091003E1,0E0,8.961548E0,0E0,4.5605164E0,3.026123E0,3.3745024E0,1.2613281E1,7.0252547E0,6.679407E1,0E0,9.044006E0,0E0,0E0,5.3555603E0,1.3297363E1,1.2351311E1,0E0,1.1299973E0,0E0,0E0,1.0327196E-1,1.2227173E1,2.0841064E1,2.833258E1,7.059286E1,0E0,0E0,0E0,0E0,7.110214E-1,3.0062141E0,0E0,0E0,3.380257E-1,0E0,0E0,2.0406952E0,8.077972E0,4.759815E0,6.0359436E1,2.913087E0,0E0,0E0,0E0,3.1451899E1,5.8149902E1,8.693457E1,0E0,0E0,5.146584E0,2.9329273E1,0E0,0E0,3.4895096E0,2.058117E0,6.8514557E0,2.0310059E0,1.5341568E0,3.1498032E0,0E0,0E0,1.2507309E1,6.167841E-1,1.083185E1,1.3840199E-4,6.6932017E-1,6.109445E1,0E0,4.9536133E-1,0E0,0E0,0E0,0E0,0E0,0E0,0E0,0E0,0E0,0E0,0E0,0E0,0E0,0E0,0E0,0E0,0E0,0E0,0E0,0E0,0E0,0E0,0E0,0E0,0E0,0E0,0E0,0E0,0E0,0E0,0E0,0E0,0E0,0E0,0E0,0E0,0E0,0E0,0E0,0E0,0E0,0E0,0E0,0E0,0E0,0E0,0E0,0E0,0E0,0E0,0E0,0E0,0E0,0E0,0E0,0E0,0E0,0E0,0E0,0E0,0E0,0E0,0E0,0E0,0E0,0E0,0E0,0E0,0E0,0E0],"parents":[2147483647,0,0,1,1,2,2,3,3,4,4,5,5,6,6,7,7,8,8,9,9,10,10,11,11,12,12,13,13,14,14,15,15,16,16,19,19,20,20,21,21,22,22,23,23,24,24,25,25,26,26,27,27,28,28,29,29,30,30,31,31,32,32,35,35,36,36,38,38,39,39,40,40,41,41,42,42,43,43,44,44,45,45,47,47,48,48,49,49,51,51,53,53,55,55,56,56,57,57,59,59,60,60,61,61,62,62,63,63,64,64,65,65,66,66,69,69,70,70,71,71,73,73,74,74,79,79,80,80,82,82,83,83,84,84,85,85,86,86,87,87,89,89,91,91,92,92,93,93,94,94,95,95,96,96,98,98,101,101,102,102,103,103,105,105,108,108,109,109,110,110,111,111,112,112,117,117,118,118,121,121,124,124,125,125,126,126,127,127,128,128,132,132,133,133,134,134,137,137,138,138,141,141,142,142,143,143,144,144,145,145,146,146,149,149,150,150,151,151,152,152,153,153,154,154,156,156],"right_children":[2,4,6,8,10,12,14,16,18,20,22,24,26,28,30,32,34,-1,-1,36,38,40,42,44,46,48,50,52,54,56,58,60,62,-1,-1,64,66,-1,68,70,72,74,76,78,80,82,-1,84,86,88,-1,90,-1,92,-1,94,96,98,-1,100,102,104,106,108,110,112,114,-1,-1,116,118,120,-1,122,124,-1,-1,-1,-1,126,128,-1,130,132,134,136,138,140,-1,142,-1,144,146,148,150,152,154,-1,156,-1,-1,158,160,162,-1,164,-1,-1,166,168,170,172,174,-1,-1,-1,-1,176,178,-1,-1,180,-1,-1,182,184,186,188,190,-1,-1,-1,192,194,196,-1,-1,198,200,-1,-1,202,204,206,208,210,212,-1,-1,214,216,218,220,222,224,-1,226,-1,-1,-1,-1,-1,-1,-1,-1,-1,-1,-1,-1,-1,-1,-1,-1,-1,-1,-1,-1,-1,-1,-1,-1,-1,-1,-1,-1,-1,-1,-1,-1,-1,-1,-1,-1,-1,-1,-1,-1,-1,-1,-1,-1,-1,-1,-1,-1,-1,-1,-1,-1,-1,-1,-1,-1,-1,-1,-1,-1,-1,-1,-1,-1,-1,-1,-1,-1,-1,-1],"split_conditions":[2E0,-4.363309E-3,1.2E1,-1.3089595E-2,6.39439E-1,3.9259817E-2,5E0,1.2E1,-8.726535E-3,1.2E1,1.4E1,-4.7269156E-3,1.6E1,-4.363309E-3,6.3270533E-1,2.2E1,1.7E1,-3.47155E-2,6.6446245E-4,2.2E1,4E0,1.4E1,1.5E1,9E0,1.2E1,1.4E1,6E0,-8.726535E-3,1.5E1,-2.461533E-1,6E0,-3.007058E-1,1E1,-1.6344972E-1,-1.066848E-1,4E0,1.1E1,-9.698737E-2,1.391731E-1,2E0,7.8531694E-1,7.1018535E-1,7.1325046E-1,-1.7452406E-2,1.2E1,-4.363309E-3,4.775611E-2,3.6243805E-1,2.9654157E-1,4.2261827E-1,1.9968568E-1,1.5E1,6.6146546E-4,1.4E1,8.617046E-2,7.7E1,1.8E1,3.5E1,6.587841E-4,2E0,-8.7155744E-2,9E0,9E0,5.6640625E-1,2.2495106E-1,9E0,4E0,-1.8502025E-1,-2.3221764E-1,7.77146E-1,9E0,1.3E1,7.6184613E-3,1.4E1,7.431448E-1,-1.060108E-1,5.2271254E-4,1.2640235E-1,4.8000664E-2,3E0,1.1E1,6.636836E-4,4E0,1.90809E-1,5.112931E-1,7E0,3.4611705E-1,2.0364176E-1,6.335058E-2,1.4E1,8.7191604E-2,8E0,7.253744E-1,6E0,-2.923717E-1,6E0,3.2143947E-1,-6.328997E-2,3.6621725E-3,2.5891394E-3,1.3501313E-2,2E0,4E0,9E0,2.8032074E-3,4E0,-7.0051976E-2,-7.832352E-2,2E0,4E0,4E0,4.617486E-1,1E1,-4.5797154E-2,-1.0924334E-1,-7.265492E-2,-2.7682325E-2,1E0,1E1,-1.12949364E-1,-5.7648033E-2,1.9E1,-3.152976E-2,1.9278279E-2,1.1E1,-2.8401536E-1,4E0,4E0,-1.391731E-1,4.42489E-3,3.408257E-2,7.001578E-2,2.9654157E-1,3E0,1.2E1,4.4948798E-2,8.9413375E-2,4E0,4.2261827E-1,5.0282083E-2,1.13591954E-1,1.6E1,-1.3052619E-1,5.4829323E-1,3.048643E-1,3.3380687E-1,8E0,-2.5239687E-2,5.3581706E-4,6E0,1.9E1,-4.363309E-3,-8.2808204E-2,-4.363309E-3,2E1,-3.8251236E-2,1.8E1,-7.611145E-2,-1.12089545E-1,-1.7708445E-2,-1.5140173E-1,-2.5155652E-2,-5.655816E-2,-5.964865E-2,-3.1667E-2,-3.7872538E-2,-9.711151E-3,-1.1585256E-1,-1.5906686E-1,-1.6154806E-1,-2.1886331E-1,-7.7670395E-2,-2.3556821E-2,3.5879884E-3,-7.241937E-2,-2.2054546E-2,-4.7431037E-2,2.6757952E-3,-3.0446965E-2,-9.002269E-3,1.0304779E-3,5.856495E-2,2.7111983E-2,1.0538633E-1,4.605437E-2,-3.0092651E-2,1.5769162E-3,3.0854871E-2,7.204107E-2,4.7411323E-3,-2.4896415E-2,-1.0831509E-2,4.016195E-2,1.2721974E-1,2.0826231E-1,9.767417E-2,6.1101057E-2,-3.3301204E-2,1.2527364E-3,3.948806E-2,2.1737062E-3,5.2275017E-2,2.1231676E-2,1.9848416E-2,3.557658E-2,4.330641E-2,8.468483E-2,5.9637938E-2,4.19587E-2,3.0768907E-2,2.1821976E-2,5.2563656E-2,2.4334896E-2,-1.1111758E-1,2.8186443E-4,-5.0943673E-2,-2.0022811E-2,6.490197E-4,-2.3229007E-2,5.448957E-4,6.7548675E-4,6.5965496E-4,-9.726301E-3,5.0593458E-2,-1.1194753E-2,-1.5306664E-1,-1.1351905E-1],"split_indices":[2,6,4,6,6,6,2,4,6,4,0,6,0,6,6,3,0,0,0,3,0,4,0,0,0,0,4,6,4,6,2,6,4,0,0,0,4,0,6,0,6,6,6,6,3,6,0,6,6,6,0,4,0,4,0,3,4,3,0,4,6,4,0,6,6,4,0,0,0,6,4,0,0,4,6,0,0,0,0,4,4,0,4,6,6,4,6,6,0,4,0,0,6,2,6,2,6,0,5,0,0,4,0,0,0,0,0,0,4,4,4,6,4,0,0,0,0,4,4,0,0,3,0,0,4,6,4,2,6,0,0,0,6,0,0,0,0,4,6,0,0,0,6,6,6,6,0,0,0,2,4,6,6,6,4,0,4,0,0,0,0,0,0,0,0,0,0,0,0,0,0,0,0,0,0,0,0,0,0,0,0,0,0,0,0,0,0,0,0,0,0,0,0,0,0,0,0,0,0,0,0,0,0,0,0,0,0,0,0,0,0,0,0,0,0,0,0,0,0,0,0,0,0,0,0,0,0],"split_type":[0,0,0,0,0,0,0,0,0,0,0,0,0,0,0,0,0,0,0,0,0,0,0,0,0,0,0,0,0,0,0,0,0,0,0,0,0,0,0,0,0,0,0,0,0,0,0,0,0,0,0,0,0,0,0,0,0,0,0,0,0,0,0,0,0,0,0,0,0,0,0,0,0,0,0,0,0,0,0,0,0,0,0,0,0,0,0,0,0,0,0,0,0,0,0,0,0,0,0,0,0,0,0,0,0,0,0,0,0,0,0,0,0,0,0,0,0,0,0,0,0,0,0,0,0,0,0,0,0,0,0,0,0,0,0,0,0,0,0,0,0,0,0,0,0,0,0,0,0,0,0,0,0,0,0,0,0,0,0,0,0,0,0,0,0,0,0,0,0,0,0,0,0,0,0,0,0,0,0,0,0,0,0,0,0,0,0,0,0,0,0,0,0,0,0,0,0,0,0,0,0,0,0,0,0,0,0,0,0,0,0,0,0,0,0,0,0,0,0,0,0,0,0,0,0,0,0],"sum_hessian":[4.461E3,1.689E3,2.772E3,1.057E3,6.32E2,1.389E3,1.383E3,2.28E2,8.29E2,4.45E2,1.87E2,7.07E2,6.82E2,5.77E2,8.06E2,1.6E2,6.8E1,3E0,8.26E2,3.39E2,1.06E2,1E2,8.7E1,2.57E2,4.5E2,5.74E2,1.08E2,2.78E2,2.99E2,6.81E2,1.25E2,7.1E1,8.9E1,5E1,1.8E1,1.54E2,1.85E2,1.7E1,8.9E1,6.5E1,3.5E1,5.8E1,2.9E1,2.2E1,2.35E2,4.35E2,1.5E1,4.66E2,1.08E2,5.6E1,5.2E1,1.03E2,1.75E2,2.22E2,7.7E1,4.5E1,6.36E2,5.7E1,6.8E1,4E0,6.7E1,6.3E1,2.6E1,2.1E1,1.33E2,1.51E2,3.4E1,3.6E1,5.3E1,3.2E1,3.3E1,3.2E1,3E0,2.1E1,3.7E1,2.6E1,3E0,1.8E1,4E0,8.3E1,1.52E2,4.25E2,1E1,8.3E1,3.83E2,1.6E1,9.2E1,3.4E1,2.2E1,7.8E1,2.5E1,8.7E1,1.35E2,2.6E1,1.9E1,4.34E2,2.02E2,1E1,4.7E1,3E0,1E0,4.5E1,2.2E1,5.1E1,1.2E1,1.4E1,1.2E1,1.6E1,5E0,6.5E1,6.8E1,1.07E2,4.4E1,5E0,2.9E1,2.9E1,3E0,1.9E1,1.4E1,2.1E1,1.1E1,1.1E1,1E1,1.1E1,2.6E1,4.9E1,3.4E1,1.37E2,1.5E1,6E0,4E0,4E1,4.3E1,5.3E1,3.3E2,5E0,1.1E1,1.5E1,7.7E1,6E0,2.8E1,3.3E1,4.5E1,2.3E1,6.4E1,1.15E2,2E1,5E0,2.1E1,1.2E1,7E0,7E1,3.64E2,1.23E2,7.9E1,2E0,4.5E1,1.8E1,2.7E1,1E0,2.1E1,2.8E1,2.3E1,5E0,9E0,4E0,1E0,4.2E1,2.3E1,4.4E1,2.4E1,9.6E1,1.1E1,2.1E1,2.3E1,4E0,1.5E1,3E0,1.1E1,5E0,6E0,2.1E1,5E0,2E0,4.7E1,2.9E1,5E0,6.2E1,7.5E1,1.2E1,3E0,2.3E1,2E1,3.7E1,1.6E1,2.41E2,8.9E1,6E0,9E0,3.6E1,4.1E1,2.7E1,6E0,3.1E1,1.4E1,1.1E1,1.2E1,1.7E1,4.7E1,3.6E1,7.9E1,9E0,1.1E1,1.1E1,1E0,4E0,3E0,4E1,3E1,3.6E1,3.28E2,1.18E2,5E0,6E1,1.9E1,1.7E1,2.8E1],"tree_param":{"num_deleted":"0","num_feature":"8","num_nodes":"227","size_leaf_vector":"1"}},{"base_weights":[-6.7971307E-3,-1.6551158E0,9.991907E-1,-3.641028E-2,-3.2378495E0,2.9492911E-2,1.5230588E0,6.4432586E-4,-3.696423E0,-3.7254586E0,-1.3462559E0,6.444099E-4,1.0234163E0,1.9176048E0,-8.122605E-1,-7.563865E-2,-1.421383E-1,-3.0030918E0,-5.7305017E0,-2.1408255E0,-4.2058867E-1,3.5476827E-4,3.5384767E-2,2.159E0,2.1006234E-2,3.9148487E-2,-3.0477529E0,-4.0559354E0,-1.9084218E0,-3.813949E0,-6.18632E0,-1.7306478E0,-2.7945402E0,6.9686425E-1,-3.0409539E0,2.0155115E0,4.2215705E0,9.005965E-4,2.0185305E-2,-1.4677799E0,5.033446E-1,-3.788596E0,6.075413E-4,-3.498968E0,-5.370964E0,-1.6830411E0,-2.8364742E0,-1.2485881E-1,-6.6960804E-2,-6.8412747E0,-4.125063E0,-2.2297852E0,-1.1405464E0,-3.087202E0,7.4451044E-3,-5.5609757E-1,1.4039246E0,-1.00344315E-1,4.5406268E-4,1.9128883E0,3.7360532E0,3.8016093E0,2.2710922E-1,5.328099E-4,6.419653E-4,-3.1824055E0,-5.043869E-1,-2.1830074E-1,1.1014307E0,-1.4898963E-1,-3.2035687E0,-3.9646087E0,-1.8009195E0,-1.03420086E-1,-5.8535037E0,-2.0226314E0,-1.068309E0,-2.9644351E-2,-3.0345676E0,-1.8225989E-1,-2.2506069E-1,-9.688077E-2,-1.3815168E-1,-7.091856E-2,-2.7052416E-2,-1.3924017E0,-5.789416E-1,-1.1070273E-1,-5.6044754E-2,-9.317116E-2,-3.0660117E-2,1.8511241E-2,1.7468257E0,1.3843914E0,2.286933E0,1.8462121E-1,2.8234527E0,4.0946493E0,5.4606665E-2,-1.0802723E-1,-4.9707174E-2,-7.671238E-1,5.816123E-4,-6.466123E-1,6.1544863E-4,1.608328E0,-3.9929625E-1,-2.2466114E0,-1.383015E-1,-7.748398E-2,-1.3154154E-1,-1.0260739E-2,-7.264966E-2,-1.9188656E-1,-1.0681918E-1,-2.9603811E-2,-6.625046E-2,3.2961995E-3,-6.1233867E-2,-5.6061704E-2,-1.0156873E-1,-2.1519238E-2,-4.6081927E-2,2.6149082E-3,-2.5459385E-2,-8.423677E-3,1.0245906E-3,5.686886E-2,2.5369443E-2,3.8236894E-2,8.472533E-2,7.947835E-2,4.7832616E-2,9.5853046E-2,3.226216E-2,8.879575E-2,1.5080254E-1,-2.7240474E-2,-9.480388E-3,-1.2780937E-2,-3.7999675E-2,5.6609005E-2,1.619692E-2,-4.357306E-3,-3.0781668E-2,-5.1043667E-2,-7.918888E-2],"categories":[],"categories_nodes":[],"categories_segments":[],"categories_sizes":[],"default_left":[0,0,0,0,0,0,0,0,0,0,0,0,0,0,0,0,0,0,0,0,0,0,0,0,0,0,0,0,0,0,0,0,0,0,0,0,0,0,0,0,0,0,0,0,0,0,0,0,0,0,0,0,0,0,0,0,0,0,0,0,0,0,0,0,0,0,0,0,0,0,0,0,0,0,0,0,0,0,0,0,0,0,0,0,0,0,0,0,0,0,0,0,0,0,0,0,0,0,0,0,0,0,0,0,0,0,0,0,0,0,0,0,0,0,0,0,0,0,0,0,0,0,0,0,0,0,0,0,0,0,0,0,0,0,0,0,0,0,0,0,0,0,0,0,0,0,0],"id":7,"left_children":[1,3,5,7,9,11,13,-1,15,17,19,-1,21,23,25,-1,-1,27,29,31,33,-1,-1,35,37,39,41,43,45,47,49,51,53,55,57,59,61,-1,63,65,67,69,-1,71,73,75,77,-1,-1,79,81,83,85,87,-1,89,91,-1,-1,93,95,97,-1,-1,-1,99,101,103,105,-1,107,109,111,-1,113,115,117,-1,119,-1,-1,-1,-1,-1,-1,121,123,-1,-1,125,-1,-1,127,129,131,-1,133,135,-1,-1,-1,137,-1,139,-1,141,143,145,-1,-1,-1,-1,-1,-1,-1,-1,-1,-1,-1,-1,-1,-1,-1,-1,-1,-1,-1,-1,-1,-1,-1,-1,-1,-1,-1,-1,-1,-1,-1,-1,-1,-1,-1,-1,-1,-1,-1],"loss_changes":[7.4071235E3,4.337315E3,1.4091296E3,1.7688763E2,7.8452344E2,7.9680667E0,1.6609824E3,0E0,3.7835388E0,9.676865E2,1.2928436E2,0E0,1.1426525E0,7.054702E2,4.9688538E2,0E0,0E0,5.7082275E2,1.3277979E2,2.0636871E1,2.4515431E2,0E0,0E0,3.9606152E2,6.4742565E-4,1.3364575E2,1.6371332E2,1.6797607E2,4.7099E1,8.836487E0,1.648335E2,1.5423874E1,3.1896088E1,5.3049988E1,2.040062E1,2.1885938E2,9.216638E1,0E0,4.491955E-5,7.2728455E1,6.3254932E1,2.2342468E1,0E0,1.3676392E2,5.0115234E1,4.000818E1,1.4346741E1,0E0,0E0,6.9023438E0,2.310791E-1,2.5268097E0,3.4371796E0,1.5541626E1,0E0,4.534202E0,9.277557E0,0E0,0E0,2.3602832E2,1.3502417E2,3.955835E1,0E0,0E0,0E0,3.5090027E0,4.1414366E0,6.859785E0,6.1499344E1,0E0,4.29162E1,6.324536E1,3.4789703E1,0E0,4.146631E1,1.9609009E1,8.295478E1,0E0,9.4218445E0,0E0,0E0,0E0,0E0,0E0,0E0,6.5039825E-1,1.9760294E0,0E0,0E0,2.903824E-1,0E0,0E0,1.4530487E0,8.456067E1,1.629458E2,0E0,2.797052E1,5.6031372E1,0E0,0E0,0E0,9.080801E-1,0E0,2.7491417E0,0E0,1.5604523E1,3.1578162E0,9.4047546E-1,0E0,0E0,0E0,0E0,0E0,0E0,0E0,0E0,0E0,0E0,0E0,0E0,0E0,0E0,0E0,0E0,0E0,0E0,0E0,0E0,0E0,0E0,0E0,0E0,0E0,0E0,0E0,0E0,0E0,0E0,0E0,0E0,0E0,0E0,0E0,0E0,0E0,0E0,0E0],"parents":[2147483647,0,0,1,1,2,2,3,3,4,4,5,5,6,6,8,8,9,9,10,10,12,12,13,13,14,14,17,17,18,18,19,19,20,20,23,23,24,24,25,25,26,26,27,27,28,28,29,29,30,30,31,31,32,32,33,33,34,34,35,35,36,36,38,38,39,39,40,40,41,41,43,43,44,44,45,45,46,46,49,49,50,50,51,51,52,52,53,53,55,55,56,56,59,59,60,60,61,61,65,65,66,66,67,67,68,68,70,70,71,71,72,72,74,74,75,75,76,76,78,78,85,85,86,86,89,89,92,92,93,93,94,94,96,96,97,97,101,101,103,103,105,105,106,106,107,107],"right_children":[2,4,6,8,10,12,14,-1,16,18,20,-1,22,24,26,-1,-1,28,30,32,34,-1,-1,36,38,40,42,44,46,48,50,52,54,56,58,60,62,-1,64,66,68,70,-1,72,74,76,78,-1,-1,80,82,84,86,88,-1,90,92,-1,-1,94,96,98,-1,-1,-1,100,102,104,106,-1,108,110,112,-1,114,116,118,-1,120,-1,-1,-1,-1,-1,-1,122,124,-1,-1,126,-1,-1,128,130,132,-1,134,136,-1,-1,-1,138,-1,140,-1,142,144,146,-1,-1,-1,-1,-1,-1,-1,-1,-1,-1,-1,-1,-1,-1,-1,-1,-1,-1,-1,-1,-1,-1,-1,-1,-1,-1,-1,-1,-1,-1,-1,-1,-1,-1,-1,-1,-1,-1,-1],"split_conditions":[2E0,-9.999619E-1,-9.999619E-1,-4.363309E-3,-7.5756496E-1,-4.363309E-3,1.6E1,6.4432586E-4,1.6E1,1.2E1,1.4E1,6.444099E-4,1E1,7E0,6.3270533E-1,-7.563865E-2,-1.421383E-1,6E0,4E0,1.4E1,1.5E1,3.5476827E-4,3.5384767E-2,5E0,-9.988484E-1,-9.469301E-1,6E0,4E0,1.1E1,4.848096E-1,1.6E1,2E0,7.8531694E-1,7.1018535E-1,7.1325046E-1,1.7E1,1.6E1,9.005965E-4,-8.2808204E-2,-2.6723838E-1,1.8E1,1.8E1,6.075413E-4,3E0,4E0,9E0,-2.923717E-1,-1.2485881E-1,-6.6960804E-2,-9.914449E-1,1.4E1,7.77146E-1,9E0,1.3E1,7.4451044E-3,1.4E1,7.431448E-1,-1.00344315E-1,4.5406268E-4,3.2556817E-1,4E0,6.755902E-1,2.2710922E-1,5.328099E-4,6.419653E-4,-2.923717E-1,6E0,6E0,2E1,-1.4898963E-1,2E1,-8.7155744E-2,-7.410849E-2,-1.03420086E-1,1.6E1,4E0,1E1,-2.9644351E-2,4E0,-1.8225989E-1,-2.2506069E-1,-9.688077E-2,-1.3815168E-1,-7.091856E-2,-2.7052416E-2,1E0,4E0,-1.1070273E-1,-5.6044754E-2,5E0,-3.0660117E-2,1.8511241E-2,1.1E1,1.5E1,1.2E1,1.8462121E-1,3.2143947E-1,3.9474386E-1,5.4606665E-2,-1.0802723E-1,-4.9707174E-2,2E1,5.816123E-4,1E1,6.1544863E-4,1E1,1E1,1E0,-1.383015E-1,-7.748398E-2,-1.3154154E-1,-1.0260739E-2,-7.264966E-2,-1.9188656E-1,-1.0681918E-1,-2.9603811E-2,-6.625046E-2,3.2961995E-3,-6.1233867E-2,-5.6061704E-2,-1.0156873E-1,-2.1519238E-2,-4.6081927E-2,2.6149082E-3,-2.5459385E-2,-8.423677E-3,1.0245906E-3,5.686886E-2,2.5369443E-2,3.8236894E-2,8.472533E-2,7.947835E-2,4.7832616E-2,9.5853046E-2,3.226216E-2,8.879575E-2,1.5080254E-1,-2.7240474E-2,-9.480388E-3,-1.2780937E-2,-3.7999675E-2,5.6609005E-2,1.619692E-2,-4.357306E-3,-3.0781668E-2,-5.1043667E-2,-7.918888E-2],"split_indices":[2,7,7,6,7,6,4,0,0,4,0,0,0,2,6,0,0,4,0,4,0,0,0,2,7,7,2,4,4,6,0,0,6,6,6,0,0,0,6,6,4,4,0,4,0,4,6,0,0,7,4,6,4,0,0,4,6,0,0,6,2,6,0,0,0,6,2,2,4,0,4,6,6,0,0,0,4,0,0,0,0,0,0,0,0,4,0,0,0,4,0,0,4,4,4,0,6,6,0,0,0,4,0,0,0,0,0,0,0,0,0,0,0,0,0,0,0,0,0,0,0,0,0,0,0,0,0,0,0,0,0,0,0,0,0,0,0,0,0,0,0,0,0,0,0,0,0],"split_type":[0,0,0,0,0,0,0,0,0,0,0,0,0,0,0,0,0,0,0,0,0,0,0,0,0,0,0,0,0,0,0,0,0,0,0,0,0,0,0,0,0,0,0,0,0,0,0,0,0,0,0,0,0,0,0,0,0,0,0,0,0,0,0,0,0,0,0,0,0,0,0,0,0,0,0,0,0,0,0,0,0,0,0,0,0,0,0,0,0,0,0,0,0,0,0,0,0,0,0,0,0,0,0,0,0,0,0,0,0,0,0,0,0,0,0,0,0,0,0,0,0,0,0,0,0,0,0,0,0,0,0,0,0,0,0,0,0,0,0,0,0,0,0,0,0,0,0],"sum_hessian":[4.465E3,1.692E3,2.773E3,8.37E2,8.55E2,9.73E2,1.8E3,8.25E2,1.2E1,6.79E2,1.76E2,9.66E2,7E0,1.54E3,2.6E2,7E0,5E0,5.01E2,1.78E2,9.4E1,8.2E1,1E0,6E0,1.366E3,1.74E2,1.89E2,7.1E1,2.54E2,2.47E2,3.6E1,1.42E2,6E1,3.4E1,5.8E1,2.4E1,1.279E3,8.7E1,1.2E1,1.62E2,4.4E1,1.45E2,5.7E1,1.4E1,1.81E2,7.3E1,2.01E2,4.6E1,2.9E1,7E0,1.06E2,3.6E1,3.1E1,2.9E1,3.1E1,3E0,2.1E1,3.7E1,2.2E1,2E0,1.209E3,7E1,7.9E1,8E0,4.9E1,1.13E2,1.5E1,2.9E1,6.6E1,7.9E1,1.7E1,4E1,1.41E2,4E1,1.6E1,5.7E1,1.28E2,7.3E1,5E0,4.1E1,4.8E1,5.8E1,1.4E1,2.2E1,2.8E1,3E0,1.9E1,1E1,2E1,1.1E1,1.1E1,1E1,1.2E1,2.5E1,5.03E2,7.06E2,1.8E1,5.2E1,6.8E1,1.1E1,1.1E1,4E0,1.9E1,1E1,2.3E1,4.3E1,5.9E1,2E1,2.5E1,1.5E1,3.1E1,1.1E2,1.2E1,2.8E1,4.6E1,1.1E1,1.8E1,1.1E2,3.3E1,4E1,1E1,3.1E1,4E0,1.5E1,3E0,7E0,4E0,7E0,2.1E1,4E0,4.64E2,3.9E1,4.79E2,2.27E2,4.3E1,9E0,3.1E1,3.7E1,1.4E1,5E0,1.8E1,5E0,4.7E1,1.2E1,1.5E1,5E0,1.2E1,1.3E1],"tree_param":{"num_deleted":"0","num_feature":"8","num_nodes":"147","size_leaf_vector":"1"}},{"base_weights":[4.645134E-3,-1.5880834E0,9.7947836E-1,-3.239731E-2,-3.132763E0,2.8635463E-2,1.4940176E0,6.2481157E-4,-3.4294834E0,-3.6242144E0,-1.240884E0,6.248791E-4,9.9683344E-1,1.8442876E0,-1.0008919E0,-5.8859546E-2,-1.1759504E-1,-2.9612095E0,-5.623288E0,-2.0193307E0,-3.7457293E-1,3.4938648E-4,3.4464564E-2,2.0675538E0,2.0396043E-2,-2.0036143E-1,-3.110483E0,-4.2281494E0,-1.8932552E0,-3.7400033E0,-6.076609E0,-2.0972998E0,7.2756917E-3,6.302221E-1,-2.9546862E0,1.9809082E0,4.376034E0,8.753768E-4,1.9586554E-2,-2.0605848E0,1.0667782E-1,-4.0432196E0,5.9033884E-4,-2.740932E0,-4.601223E0,-1.3048307E0,-2.1726232E0,-1.2156006E-1,-6.3750975E-2,-2.0427652E-1,-1.2277176E-1,-1.7369455E0,-2.964743E0,-5.740566E-1,1.3551571E0,-9.785513E-2,4.4488083E-4,1.3208988E0,2.2355883E0,3.6487887E0,2.2098437E-1,5.1674683E-4,6.2260503E-4,-3.1688757E0,4.7090492E-4,-2.1708852E-1,4.5268172E-1,-3.616046E-2,-1.2571229E-1,-1.0999786E-1,-2.1103501E0,-2.3504643E0,-4.990138E0,-9.930038E-1,-1.6084498E0,-9.377199E-1,-2.340093E0,-2.1964061E0,-1.180131E0,-1.0554698E-1,-5.599995E-2,-1.028933E0,-1.1001244E-1,1.7992811E-2,5.0725635E-2,5.5399203E-1,1.5639594E0,2.0096133E0,3.550233E0,2.9485166E0,4.838724E0,-1.0502282E-1,-4.546939E-2,-6.4693946E-1,6.1499275E-4,9.776691E-1,-4.8940337E-1,-7.027746E-2,-3.256097E-2,8.815554E-3,-8.448606E-2,-1.345062E-1,-1.835451E-1,1.6213806E-2,-3.357739E-2,-5.2491188E-2,2.154835E-3,-6.5339706E-3,-3.3873916E-2,-5.2007396E-2,-8.117395E-2,-6.958155E-2,-2.6436841E-2,-1.869549E-2,-3.9847936E-2,-3.887821E-2,-2.0191947E-2,-8.5616885E-3,9.973932E-4,5.899376E-2,1.2798063E-3,4.0217783E-2,6.0244977E-2,6.935258E-2,2.0214114E-2,1.8726765E-1,7.684535E-2,1.037859E-1,4.6085645E-2,1.0154525E-1,1.9023058E-1,-1.4150455E-2,-3.552846E-2,-1.7344099E-2,3.479665E-2,-1.0068191E-2,-3.1955883E-2],"categories":[],"categories_nodes":[],"categories_segments":[],"categories_sizes":[],"default_left":[0,0,0,0,0,0,0,0,0,0,0,0,0,0,0,0,0,0,0,0,0,0,0,0,0,0,0,0,0,0,0,0,0,0,0,0,0,0,0,0,0,0,0,0,0,0,0,0,0,0,0,0,0,0,0,0,0,0,0,0,0,0,0,0,0,0,0,0,0,0,0,0,0,0,0,0,0,0,0,0,0,0,0,0,0,0,0,0,0,0,0,0,0,0,0,0,0,0,0,0,0,0,0,0,0,0,0,0,0,0,0,0,0,0,0,0,0,0,0,0,0,0,0,0,0,0,0,0,0,0,0,0,0,0,0,0,0],"id":8,"left_children":[1,3,5,7,9,11,13,-1,15,17,19,-1,21,23,25,-1,-1,27,29,31,33,-1,-1,35,37,39,41,43,45,47,49,51,-1,53,55,57,59,-1,61,63,65,67,-1,69,71,73,75,-1,-1,-1,-1,77,79,81,83,-1,-1,85,87,89,-1,-1,-1,91,-1,93,95,-1,-1,-1,97,99,101,103,105,107,109,111,113,-1,-1,115,117,-1,-1,119,121,123,125,127,129,-1,-1,131,-1,133,135,-1,-1,-1,-1,-1,-1,-1,-1,-1,-1,-1,-1,-1,-1,-1,-1,-1,-1,-1,-1,-1,-1,-1,-1,-1,-1,-1,-1,-1,-1,-1,-1,-1,-1,-1,-1,-1,-1,-1,-1],"loss_changes":[6.9356665E3,4.0754478E3,1.3556577E3,1.5236339E2,7.867344E2,7.560939E0,1.5731033E3,0E0,1.1251221E0,8.7799023E2,1.1860834E2,0E0,1.0834947E0,6.421333E2,3.7428854E2,0E0,0E0,6.8068945E2,1.1984668E2,1.6884216E1,2.2222333E2,0E0,0E0,2.7235938E2,6.19106E-4,9.274799E1,1.7816278E2,1.1611133E2,4.2864624E1,6.8727417E0,1.4996094E2,2.2983246E1,0E0,5.4905403E1,1.9331955E1,2.24979E2,7.914996E1,0E0,3.4816563E-5,5.2970573E1,1.5781689E1,8.495544E0,0E0,1.9681274E1,1.4933618E2,7.1130676E0,3.6478943E1,0E0,0E0,0E0,0E0,1.4292999E1,7.9600525E0,4.9527903E0,8.423218E0,0E0,0E0,6.996735E1,2.8310938E2,2.0730652E1,0E0,0E0,0E0,2.1444397E0,0E0,7.461217E0,3.4110107E1,0E0,0E0,0E0,4.136856E0,3.406331E1,6.521265E1,8.927631E0,9.316994E0,2.8586636E0,2.9842834E1,2.4998932E0,1.5953331E0,0E0,0E0,2.482605E-1,3.2910472E-1,0E0,0E0,6.610035E1,2.6320251E1,3.0870703E2,3.6318884E2,1.4381989E1,8.906952E0,0E0,0E0,1.9138975E0,0E0,1.21917305E1,1.8714762E0,0E0,0E0,0E0,0E0,0E0,0E0,0E0,0E0,0E0,0E0,0E0,0E0,0E0,0E0,0E0,0E0,0E0,0E0,0E0,0E0,0E0,0E0,0E0,0E0,0E0,0E0,0E0,0E0,0E0,0E0,0E0,0E0,0E0,0E0,0E0,0E0,0E0,0E0,0E0,0E0],"parents":[2147483647,0,0,1,1,2,2,3,3,4,4,5,5,6,6,8,8,9,9,10,10,12,12,13,13,14,14,17,17,18,18,19,19,20,20,23,23,24,24,25,25,26,26,27,27,28,28,29,29,30,30,31,31,33,33,34,34,35,35,36,36,38,38,39,39,40,40,41,41,43,43,44,44,45,45,46,46,51,51,52,52,53,53,54,54,57,57,58,58,59,59,63,63,65,65,66,66,70,70,71,71,72,72,73,73,74,74,75,75,76,76,77,77,78,78,81,81,82,82,85,85,86,86,87,87,88,88,89,89,90,90,93,93,95,95,96,96],"right_children":[2,4,6,8,10,12,14,-1,16,18,20,-1,22,24,26,-1,-1,28,30,32,34,-1,-1,36,38,40,42,44,46,48,50,52,-1,54,56,58,60,-1,62,64,66,68,-1,70,72,74,76,-1,-1,-1,-1,78,80,82,84,-1,-1,86,88,90,-1,-1,-1,92,-1,94,96,-1,-1,-1,98,100,102,104,106,108,110,112,114,-1,-1,116,118,-1,-1,120,122,124,126,128,130,-1,-1,132,-1,134,136,-1,-1,-1,-1,-1,-1,-1,-1,-1,-1,-1,-1,-1,-1,-1,-1,-1,-1,-1,-1,-1,-1,-1,-1,-1,-1,-1,-1,-1,-1,-1,-1,-1,-1,-1,-1,-1,-1,-1,-1],"split_conditions":[2E0,-9.999619E-1,-9.999619E-1,-4.363309E-3,-7.5756496E-1,-4.363309E-3,6.8E1,6.2481157E-4,4E0,5.2E1,1.4E1,6.248791E-4,1E1,7E0,6.3270533E-1,-5.8859546E-2,-1.1759504E-1,2.2E1,4E0,7.9600203E-1,1.5E1,3.4938648E-4,3.4464564E-2,6E0,-9.988484E-1,-2.6723838E-1,6E0,4E0,-8.726535E-3,4.848096E-1,1.6E1,5.8E1,7.2756917E-3,7.1018535E-1,7.1325046E-1,3.9259817E-2,1.6E1,8.753768E-4,-8.2808204E-2,6E0,8.3E1,3.6621725E-3,5.9033884E-4,-9.584575E-2,-1.4349262E-1,9E0,4E0,-1.2156006E-1,-6.3750975E-2,-2.0427652E-1,-1.2277176E-1,2E0,1.3E1,6.755902E-1,7.431448E-1,-9.785513E-2,4.4488083E-4,1.2E1,1.6E1,3.9474386E-1,2.2098437E-1,5.1674683E-4,6.2260503E-4,-2.923717E-1,4.7090492E-4,6E0,9E1,-3.616046E-2,-1.2571229E-1,-1.0999786E-1,5.6640625E-1,9E0,1.3E1,-3.007058E-1,-6.5403126E-2,5.9482276E-1,1.9900331E-1,7.77146E-1,4E0,-1.0554698E-1,-5.599995E-2,6.658817E-1,1.9E1,1.7992811E-2,5.0725635E-2,4E0,-8.2808204E-2,1.4E1,4E0,-9.702957E-1,1.3E1,-1.0502282E-1,-4.546939E-2,1E1,6.1499275E-4,3.2143947E-1,1E1,-7.027746E-2,-3.256097E-2,8.815554E-3,-8.448606E-2,-1.345062E-1,-1.835451E-1,1.6213806E-2,-3.357739E-2,-5.2491188E-2,2.154835E-3,-6.5339706E-3,-3.3873916E-2,-5.2007396E-2,-8.117395E-2,-6.958155E-2,-2.6436841E-2,-1.869549E-2,-3.9847936E-2,-3.887821E-2,-2.0191947E-2,-8.5616885E-3,9.973932E-4,5.899376E-2,1.2798063E-3,4.0217783E-2,6.0244977E-2,6.935258E-2,2.0214114E-2,1.8726765E-1,7.684535E-2,1.037859E-1,4.6085645E-2,1.0154525E-1,1.9023058E-1,-1.4150455E-2,-3.552846E-2,-1.7344099E-2,3.479665E-2,-1.0068191E-2,-3.1955883E-2],"split_indices":[2,7,7,6,7,6,3,0,0,3,0,0,0,2,6,0,0,3,0,6,0,0,0,2,7,6,2,0,6,6,0,3,0,6,6,6,0,0,6,2,3,5,0,6,6,0,0,0,0,0,0,0,0,6,6,0,0,3,0,6,0,0,0,6,0,2,3,0,0,0,6,0,3,6,6,6,5,6,0,0,0,6,3,0,0,3,6,0,2,7,0,0,0,0,0,6,0,0,0,0,0,0,0,0,0,0,0,0,0,0,0,0,0,0,0,0,0,0,0,0,0,0,0,0,0,0,0,0,0,0,0,0,0,0,0,0,0],"split_type":[0,0,0,0,0,0,0,0,0,0,0,0,0,0,0,0,0,0,0,0,0,0,0,0,0,0,0,0,0,0,0,0,0,0,0,0,0,0,0,0,0,0,0,0,0,0,0,0,0,0,0,0,0,0,0,0,0,0,0,0,0,0,0,0,0,0,0,0,0,0,0,0,0,0,0,0,0,0,0,0,0,0,0,0,0,0,0,0,0,0,0,0,0,0,0,0,0,0,0,0,0,0,0,0,0,0,0,0,0,0,0,0,0,0,0,0,0,0,0,0,0,0,0,0,0,0,0,0,0,0,0,0,0,0,0,0,0],"sum_hessian":[4.465E3,1.695E3,2.77E3,8.45E2,8.5E2,9.73E2,1.797E3,8.33E2,1.2E1,6.74E2,1.76E2,9.66E2,7E0,1.576E3,2.21E2,4E0,8E0,5.08E2,1.66E2,9.2E1,8.4E1,1E0,6E0,1.404E3,1.72E2,1.61E2,6E1,2.31E2,2.77E2,3.4E1,1.32E2,8.9E1,3E0,6.1E1,2.3E1,1.355E3,4.9E1,1.2E1,1.6E2,2.2E1,1.39E2,4.6E1,1.4E1,4.8E1,1.83E2,9.1E1,1.86E2,2.8E1,6E0,9.8E1,3.4E1,6.5E1,2.4E1,2.3E1,3.8E1,2.1E1,2E0,3.79E2,9.76E2,4.1E1,8E0,4.8E1,1.12E2,1.4E1,8E0,7.2E1,6.7E1,2E0,4.4E1,1.8E1,3E1,2.8E1,1.55E2,4.7E1,4.4E1,2.3E1,1.63E2,3.4E1,3.1E1,1.5E1,9E0,1.1E1,1.2E1,1.2E1,2.6E1,9.2E1,2.87E2,8.35E2,1.41E2,2.8E1,1.3E1,1.1E1,3E0,2.5E1,4.7E1,4.3E1,2.4E1,2.4E1,6E0,4E0,2.4E1,1.05E2,5E1,3E0,4.4E1,4.1E1,3E0,5E0,1.8E1,5.9E1,1.04E2,3.1E1,3E0,7E0,2.4E1,5E0,6E0,5E0,7E0,2.4E1,6.8E1,1.86E2,1.01E2,6.92E2,1.43E2,3.8E1,1.03E2,2E1,8E0,8E0,5E0,2E1,5E0,4E0,3.9E1,2E1,4E0],"tree_param":{"num_deleted":"0","num_feature":"8","num_nodes":"137","size_leaf_vector":"1"}},{"base_weights":[4.0948223E-3,-1.544857E0,9.5310694E-1,-3.81215E-2,-3.0426636E0,2.6574306E-2,1.4519943E0,6.058724E-4,-3.4835134E0,-3.490656E0,-1.167091E0,6.059336E-4,9.292491E-1,1.9150468E0,3.014204E-1,-7.402496E-2,-1.3557139E-1,-1.7122896E0,-3.9009209E0,-2.13223E0,-1.3988237E-1,3.4408786E-4,3.2777533E-2,1.328193E0,2.364511E0,1.0068082E0,-1.8225476E0,-2.9432614E0,-8.2677317E-1,-4.434306E0,-2.2570364E0,-2.5225255E0,-1.4407785E0,-1.5677867E0,1.2233571E0,8.567736E-1,1.6983292E0,2.2404716E0,4.2739615E0,2.6249096E0,1.9751398E-2,-6.940254E-1,-4.2278137E0,-2.8045898E-2,-3.1304038E0,1.444056E-1,-1.6830375E0,-4.725101E0,-1.6451651E0,-1.5880806E0,-2.5742526E0,-2.7920244E0,-3.526733E-1,-6.148566E-2,-3.834351E-2,-5.8532876E-1,-8.301154E-2,4.7239184E-1,1.6230639E0,-2.559577E-1,1.4742347E0,2.1302686E0,7.087747E-1,1.709244E0,2.6348398E0,1.877831E-1,9.514254E-2,3.9674926E0,6.1203957E-1,8.449495E-4,1.9245217E-2,-3.0121393E0,-1.8343288E-1,-1.4081559E-1,-7.530336E-2,-5.385989E-2,-3.3909407E0,2.350274E-3,4.6985317E-3,-3.0137423E-1,-2.244368E0,-3.1513648E0,-5.110706E0,-7.195199E-1,-2.0033796E0,-1.8669482E-1,-1.8286558E0,-2.152952E0,-3.2296202E0,-7.4929915E-2,-1.0990482E-1,-2.5835272E-2,7.1101366E-3,-1.0026379E0,-1.1924231E-1,5.764323E-1,4.903675E-4,2.450257E-2,1.771687E0,-6.26145E-1,2.425929E0,2.164038E0,8.4824085E-1,2.6278894E0,1.285036E0,5.851789E-1,1.178864E0,2.3162837E0,1.4743261E0,4.935038E0,2.5033834E0,3.5669332E0,2.1502468E-1,1.463893E0,-5.528086E-2,5.0318294E-4,6.068518E-4,-1.0210197E-1,-4.7397055E-2,-5.6288385E-1,8.010331E-1,-8.741299E-2,-1.2061933E-1,1.8003257E-2,-2.3209332E-2,-1.1900136E-2,-7.660894E-2,-1.18646644E-1,-7.359181E-2,-1.6911162E-1,-1.06065996E-1,-4.2464617E-3,-2.9173328E-2,-1.7830048E-2,-6.694154E-2,-1.23371035E-2,4.0927697E-3,-3.9781336E-2,-7.438227E-2,-7.867872E-2,-5.8978245E-2,-1.0556797E-1,-4.5011103E-2,-3.7895244E-2,-1.9666845E-2,-8.345223E-3,9.511026E-4,1.8865205E-2,6.612841E-3,5.79384E-2,3.293493E-2,-1.2033777E-3,-3.046395E-2,9.9648796E-2,4.448333E-2,1.1591041E-1,5.7926282E-2,1.7130014E-2,3.0118033E-2,1.0130566E-1,5.6981713E-2,2.0548945E-2,9.904601E-2,1.8806394E-2,8.719249E-3,4.79285E-2,2.0028101E-2,9.6220344E-2,6.06174E-2,3.2315947E-2,5.51376E-2,2.8392855E-2,1.8828104E-1,8.8302866E-2,4.0772676E-2,1.1662889E-1,5.085354E-2,-2.4297483E-2,5.560846E-2,-1.1276584E-2,-3.6442555E-2,3.0396517E-2,-1.274404E-3],"categories":[],"categories_nodes":[],"categories_segments":[],"categories_sizes":[],"default_left":[0,0,0,0,0,0,0,0,0,0,0,0,0,0,0,0,0,0,0,0,0,0,0,0,0,0,0,0,0,0,0,0,0,0,0,0,0,0,0,0,0,0,0,0,0,0,0,0,0,0,0,0,0,0,0,0,0,0,0,0,0,0,0,0,0,0,0,0,0,0,0,0,0,0,0,0,0,0,0,0,0,0,0,0,0,0,0,0,0,0,0,0,0,0,0,0,0,0,0,0,0,0,0,0,0,0,0,0,0,0,0,0,0,0,0,0,0,0,0,0,0,0,0,0,0,0,0,0,0,0,0,0,0,0,0,0,0,0,0,0,0,0,0,0,0,0,0,0,0,0,0,0,0,0,0,0,0,0,0,0,0,0,0,0,0,0,0,0,0,0,0,0,0,0,0,0,0,0,0,0,0,0,0],"id":9,"left_children":[1,3,5,7,9,11,13,-1,15,17,19,-1,21,23,25,-1,-1,27,29,31,33,-1,-1,35,37,39,41,43,45,47,49,51,53,55,57,59,61,63,65,67,69,71,73,-1,75,77,79,81,83,85,87,89,91,-1,-1,93,-1,95,97,99,101,103,105,107,109,-1,-1,111,113,-1,115,117,119,-1,-1,-1,121,-1,-1,123,125,127,129,131,133,135,137,139,141,-1,-1,-1,-1,143,145,147,-1,-1,149,151,153,155,157,159,161,163,165,167,169,171,173,175,-1,177,-1,-1,-1,-1,-1,179,181,-1,-1,-1,-1,-1,-1,-1,-1,-1,-1,-1,-1,-1,-1,-1,-1,-1,-1,-1,-1,-1,-1,-1,-1,-1,-1,-1,-1,-1,-1,-1,-1,-1,-1,-1,-1,-1,-1,-1,-1,-1,-1,-1,-1,-1,-1,-1,-1,-1,-1,-1,-1,-1,-1,-1,-1,-1,-1,-1,-1,-1,-1],"loss_changes":[6.542857E3,3.81613E3,1.2757312E3,1.6899294E2,7.0845264E2,5.744942E0,9.552234E2,0E0,3.4883728E0,4.923672E2,1.6328258E2,0E0,9.5858383E-1,3.342207E2,7.7491693E2,0E0,0E0,1.3927255E2,4.766289E2,1.9304626E1,1.5959058E2,0E0,0E0,9.573541E1,1.6166504E2,6.196455E2,3.4722296E2,1.7508331E1,6.427515E1,3.3125293E2,2.5195923E1,3.000824E1,8.600235E-1,4.430931E1,1.1840248E1,1.700832E2,1.314201E2,1.3816528E2,7.4322754E1,3.9483118E2,4.5601279E-4,1.04788925E2,1.8074707E1,0E0,1.1281097E1,1.3904691E-2,3.1121971E1,2.132793E2,1.2153282E1,1.550412E1,1.8448608E1,3.6347656E0,2.2494256E0,0E0,0E0,4.3539915E0,0E0,7.50144E-1,1.8414841E0,8.987823E1,6.682257E1,8.7473755E1,4.8878555E0,3.8368164E1,1.0527002E2,0E0,0E0,8.4687256E1,1.2707656E2,0E0,1.3320893E-4,2.9350128E0,2.8094072E1,0E0,0E0,0E0,4.6862793E-1,0E0,0E0,5.846492E0,1.4084106E1,3.2943787E1,2.0639746E2,1.6889267E0,7.0378265E0,6.2068695E-1,9.680222E0,3.8909912E-1,9.672791E0,0E0,0E0,0E0,0E0,2.3824978E-1,2.9019415E-1,7.5871944E-2,0E0,0E0,9.529114E-3,1.7471062E1,4.247856E0,2.4358215E1,2.921997E0,6.570996E1,9.643797E1,6.2734985E-1,2.9080296E0,1.5441467E1,2.8100342E1,9.582721E1,1.7073022E2,3.5478455E1,0E0,3.90692E1,0E0,0E0,0E0,0E0,0E0,6.1437664E0,3.597578E0,0E0,0E0,0E0,0E0,0E0,0E0,0E0,0E0,0E0,0E0,0E0,0E0,0E0,0E0,0E0,0E0,0E0,0E0,0E0,0E0,0E0,0E0,0E0,0E0,0E0,0E0,0E0,0E0,0E0,0E0,0E0,0E0,0E0,0E0,0E0,0E0,0E0,0E0,0E0,0E0,0E0,0E0,0E0,0E0,0E0,0E0,0E0,0E0,0E0,0E0,0E0,0E0,0E0,0E0,0E0,0E0,0E0,0E0,0E0,0E0,0E0,0E0],"parents":[2147483647,0,0,1,1,2,2,3,3,4,4,5,5,6,6,8,8,9,9,10,10,12,12,13,13,14,14,17,17,18,18,19,19,20,20,23,23,24,24,25,25,26,26,27,27,28,28,29,29,30,30,31,31,32,32,33,33,34,34,35,35,36,36,37,37,38,38,39,39,40,40,41,41,42,42,44,44,45,45,46,46,47,47,48,48,49,49,50,50,51,51,52,52,55,55,57,57,58,58,59,59,60,60,61,61,62,62,63,63,64,64,67,67,68,68,70,70,71,71,72,72,76,76,79,79,80,80,81,81,82,82,83,83,84,84,85,85,86,86,87,87,88,88,93,93,94,94,95,95,98,98,99,99,100,100,101,101,102,102,103,103,104,104,105,105,106,106,107,107,108,108,109,109,110,110,111,111,113,113,119,119,120,120],"right_children":[2,4,6,8,10,12,14,-1,16,18,20,-1,22,24,26,-1,-1,28,30,32,34,-1,-1,36,38,40,42,44,46,48,50,52,54,56,58,60,62,64,66,68,70,72,74,-1,76,78,80,82,84,86,88,90,92,-1,-1,94,-1,96,98,100,102,104,106,108,110,-1,-1,112,114,-1,116,118,120,-1,-1,-1,122,-1,-1,124,126,128,130,132,134,136,138,140,142,-1,-1,-1,-1,144,146,148,-1,-1,150,152,154,156,158,160,162,164,166,168,170,172,174,176,-1,178,-1,-1,-1,-1,-1,180,182,-1,-1,-1,-1,-1,-1,-1,-1,-1,-1,-1,-1,-1,-1,-1,-1,-1,-1,-1,-1,-1,-1,-1,-1,-1,-1,-1,-1,-1,-1,-1,-1,-1,-1,-1,-1,-1,-1,-1,-1,-1,-1,-1,-1,-1,-1,-1,-1,-1,-1,-1,-1,-1,-1,-1,-1,-1,-1,-1,-1,-1,-1],"split_conditions":[2E0,-9.999619E-1,-9.999619E-1,-4.363309E-3,6.6262007E-1,-4.363309E-3,5E0,6.058724E-4,1.6E1,5E0,1.4E1,6.059336E-4,1E1,8E0,1.4E1,-7.402496E-2,-1.3557139E-1,2E0,1.6E1,1.3E1,7.1325046E-1,3.4408786E-4,3.2777533E-2,3.4611705E-1,1.7E1,7E0,6.122173E-1,-2.923717E-1,3E0,1E0,9E0,7.8531694E-1,7.2236395E-1,1.5E1,7.431448E-1,5E0,7E0,3.2143947E-1,1.391731E-1,1.2E1,-9.988484E-1,-2.6723838E-1,1.8E1,-2.8045898E-2,4E0,-9.975641E-1,-7.410849E-2,4E0,-3.9259817E-2,-2.630312E-1,2E1,2E0,2E0,-6.148566E-2,-3.834351E-2,6.755902E-1,-8.301154E-2,1.5E1,2E0,1.7E1,7E0,1.2E1,7.253744E-1,-9.961947E-1,-9.304176E-1,1.877831E-1,9.514254E-2,1.6E1,6.3270533E-1,8.449495E-4,-8.2808204E-2,1.8E1,1.8E1,-1.4081559E-1,-7.530336E-2,-5.385989E-2,2.5881904E-1,2.350274E-3,4.6985317E-3,-3.007058E-1,4E0,-9.584575E-2,1.6E1,-2.6723838E-1,4E0,1.9E1,4E0,1.3E1,1.7E1,-7.4929915E-2,-1.0990482E-1,-2.5835272E-2,7.1101366E-3,8E0,6E0,1.3E1,4.903675E-4,2.450257E-2,1.9E1,2E0,2E0,-2.6723838E-1,-1.3052619E-1,6.4944804E-1,1.6E1,6.9779044E-1,8E0,4E0,4E0,4E0,1.4E1,6.755902E-1,2.1502468E-1,-2.461533E-1,-5.528086E-2,5.0318294E-4,6.068518E-4,-1.0210197E-1,-4.7397055E-2,1E1,1E1,-8.741299E-2,-1.2061933E-1,1.8003257E-2,-2.3209332E-2,-1.1900136E-2,-7.660894E-2,-1.18646644E-1,-7.359181E-2,-1.6911162E-1,-1.06065996E-1,-4.2464617E-3,-2.9173328E-2,-1.7830048E-2,-6.694154E-2,-1.23371035E-2,4.0927697E-3,-3.9781336E-2,-7.438227E-2,-7.867872E-2,-5.8978245E-2,-1.0556797E-1,-4.5011103E-2,-3.7895244E-2,-1.9666845E-2,-8.345223E-3,9.511026E-4,1.8865205E-2,6.612841E-3,5.79384E-2,3.293493E-2,-1.2033777E-3,-3.046395E-2,9.9648796E-2,4.448333E-2,1.1591041E-1,5.7926282E-2,1.7130014E-2,3.0118033E-2,1.0130566E-1,5.6981713E-2,2.0548945E-2,9.904601E-2,1.8806394E-2,8.719249E-3,4.79285E-2,2.0028101E-2,9.6220344E-2,6.06174E-2,3.2315947E-2,5.51376E-2,2.8392855E-2,1.8828104E-1,8.8302866E-2,4.0772676E-2,1.1662889E-1,5.085354E-2,-2.4297483E-2,5.560846E-2,-1.1276584E-2,-3.6442555E-2,3.0396517E-2,-1.274404E-3],"split_indices":[2,7,7,6,6,6,2,0,0,1,0,0,0,1,1,0,0,1,1,0,6,0,0,6,0,2,6,6,1,2,0,6,6,0,6,1,1,6,6,1,7,6,1,0,0,7,6,0,6,6,1,0,0,0,0,6,0,0,1,0,1,0,6,7,7,0,0,0,6,0,6,1,1,0,0,0,6,0,0,6,0,6,0,6,0,1,0,0,0,0,0,0,0,1,1,1,0,0,1,1,1,6,6,6,0,6,0,2,2,0,0,6,0,6,0,0,0,0,0,0,0,0,0,0,0,0,0,0,0,0,0,0,0,0,0,0,0,0,0,0,0,0,0,0,0,0,0,0,0,0,0,0,0,0,0,0,0,0,0,0,0,0,0,0,0,0,0,0,0,0,0,0,0,0,0,0,0,0,0,0,0,0,0],"split_type":[0,0,0,0,0,0,0,0,0,0,0,0,0,0,0,0,0,0,0,0,0,0,0,0,0,0,0,0,0,0,0,0,0,0,0,0,0,0,0,0,0,0,0,0,0,0,0,0,0,0,0,0,0,0,0,0,0,0,0,0,0,0,0,0,0,0,0,0,0,0,0,0,0,0,0,0,0,0,0,0,0,0,0,0,0,0,0,0,0,0,0,0,0,0,0,0,0,0,0,0,0,0,0,0,0,0,0,0,0,0,0,0,0,0,0,0,0,0,0,0,0,0,0,0,0,0,0,0,0,0,0,0,0,0,0,0,0,0,0,0,0,0,0,0,0,0,0,0,0,0,0,0,0,0,0,0,0,0,0,0,0,0,0,0,0,0,0,0,0,0,0,0,0,0,0,0,0,0,0,0,0,0,0],"sum_hessian":[4.449E3,1.69E3,2.759E3,8.43E2,8.47E2,9.66E2,1.793E3,8.3E2,1.3E1,6.83E2,1.64E2,9.6E2,6E0,1.278E3,5.15E2,8E0,5E0,1.29E2,5.54E2,8.4E1,8E1,1E0,5E0,5.56E2,7.22E2,3.87E2,1.28E2,5.3E1,7.6E1,4.17E2,1.37E2,5.2E1,3.2E1,3.9E1,4.1E1,2.46E2,3.1E2,6.8E2,4.2E1,1.46E2,2.41E2,8.8E1,4E1,5E0,4.8E1,3.6E1,4E1,3.77E2,4E1,4.6E1,9.1E1,4.6E1,6E0,5E0,2.7E1,2.2E1,1.7E1,1.5E1,2.6E1,8.8E1,1.58E2,2.15E2,9.5E1,2.92E2,3.88E2,1.4E1,2.8E1,8.7E1,5.9E1,1.1E1,2.3E2,1.5E1,7.3E1,3.1E1,9E0,9E0,3.9E1,6E0,3E1,1.2E1,2.8E1,7.6E1,3.01E2,1.2E1,2.8E1,7E0,3.9E1,5.8E1,3.3E1,3.6E1,1E1,3E0,3E0,1.1E1,1.1E1,1.2E1,3E0,5E0,2.1E1,7.8E1,1E1,7.4E1,8.4E1,1.34E2,8.1E1,7.7E1,1.8E1,7.9E1,2.13E2,1.9E1,3.69E2,7.9E1,8E0,4.4E1,1.5E1,5.6E1,1.74E2,1.1E1,4E0,5.3E1,2E1,2.4E1,1.5E1,4E0,8E0,4E0,2.4E1,3.5E1,4.1E1,2.32E2,6.9E1,4E0,8E0,4E0,2.4E1,4E0,3E0,2.3E1,1.6E1,1.5E1,4.3E1,2.8E1,5E0,5E0,6E0,5E0,6E0,1E1,2E0,1.6E1,5E0,3.1E1,4.7E1,4E0,6E0,8E0,6.6E1,3E1,5.4E1,6.7E1,6.7E1,6.3E1,1.8E1,6.8E1,9E0,9E0,9E0,1.9E1,6E1,9.9E1,1.14E2,5E0,1.4E1,2.72E2,9.7E1,6.8E1,1.1E1,6E0,3.8E1,4.2E1,1.1E1,1.6E1,4E0],"tree_param":{"num_deleted":"0","num_feature":"8","num_nodes":"183","size_leaf_vector":"1"}}]},"name":"gbtree"},"learner_model_param":{"base_score":"2.2156107E0","boost_from_average":"1","num_class":"0","num_feature":"8","num_target":"1"},"objective":{"name":"reg:squarederror","reg_loss_param":{"scale_pos_weight":"1"}}},"version":[2,0,1]}
